{"learner":{"attributes":{"scikit_learn":"{\"_estimator_type\": \"classifier\"}"},"feature_names":[],"feature_types":[],"gradient_booster":{"model":{"gbtree_model_param":{"num_parallel_tree":"1","num_trees":"100"},"iteration_indptr":[0,1,2,3,4,5,6,7,8,9,10,11,12,13,14,15,16,17,18,19,20,21,22,23,24,25,26,27,28,29,30,31,32,33,34,35,36,37,38,39,40,41,42,43,44,45,46,47,48,49,50,51,52,53,54,55,56,57,58,59,60,61,62,63,64,65,66,67,68,69,70,71,72,73,74,75,76,77,78,79,80,81,82,83,84,85,86,87,88,89,90,91,92,93,94,95,96,97,98,99,100],"tree_info":[0,0,0,0,0,0,0,0,0,0,0,0,0,0,0,0,0,0,0,0,0,0,0,0,0,0,0,0,0,0,0,0,0,0,0,0,0,0,0,0,0,0,0,0,0,0,0,0,0,0,0,0,0,0,0,0,0,0,0,0,0,0,0,0,0,0,0,0,0,0,0,0,0,0,0,0,0,0,0,0,0,0,0,0,0,0,0,0,0,0,0,0,0,0,0,0,0,0,0,0],"trees":[{"base_weights":[-0E0,1.0325581E0,-1.6946565E0,-1.2E0,1.3650794E0,-5.8E-1,6.666667E-1,-5.04E-1,2.0000002E-1,5.714286E-1,1.7723577E0,3.818182E-1,-1.5E-1,-5.263158E-1,5E-1,5.6842107E-1,1.5384616E-1,5.882353E-1,-1.2E0,-3E-1,3.3333337E-1,-2.0000002E-1,4.0000004E-1,-0E0,-4.7368425E-1],"categories":[],"categories_nodes":[],"categories_segments":[],"categories_sizes":[],"default_left":[0,0,0,0,0,0,0,0,0,0,0,0,0,0,0,0,0,0,0,0,0,0,0,0,0],"id":0,"left_children":[1,3,5,7,9,-1,11,-1,-1,13,15,-1,-1,17,-1,-1,19,21,23,-1,-1,-1,-1,-1,-1],"loss_changes":[1.5136041E2,4.154065E1,1.974656E1,7.839999E0,1.4260162E1,0E0,3.287879E0,0E0,0E0,2.1917294E1,5.7992096E0,0E0,0E0,7.83901E0,0E0,0E0,4.700855E0,4.8627453E0,2.842105E0,0E0,0E0,0E0,0E0,0E0,0E0],"parents":[2147483647,0,0,1,1,2,2,3,3,4,4,6,6,9,9,10,10,13,13,16,16,17,17,18,18],"right_children":[2,4,6,8,10,-1,12,-1,-1,14,16,-1,-1,18,-1,-1,20,22,24,-1,-1,-1,-1,-1,-1],"split_conditions":[0E0,-1.7411226E-1,1.882075E0,2.259515E-3,5.20377E-4,-5.8E-1,0E0,-5.04E-1,2.0000002E-1,-3.996209E-1,1E0,3.818182E-1,-1.5E-1,8.0908895E-1,5E-1,5.6842107E-1,2.259515E-3,5.542537E-3,-6.627229E-1,-3E-1,3.3333337E-1,-2.0000002E-1,4.0000004E-1,-0E0,-4.7368425E-1],"split_indices":[25,26,26,7,10,0,24,0,0,22,9,0,0,14,0,0,7,16,19,0,0,0,0,0,0],"split_type":[0,0,0,0,0,0,0,0,0,0,0,0,0,0,0,0,0,0,0,0,0,0,0,0,0],"sum_hessian":[8.45E1,5.275E1,3.175E1,6.5E0,4.625E1,2.9E1,2.75E0,5.25E0,1.25E0,1.65E1,2.975E1,1.75E0,1E0,8.5E0,8E0,2.75E1,2.25E0,3.25E0,5.25E0,1E0,1.25E0,1.25E0,2E0,1.5E0,3.75E0],"tree_param":{"num_deleted":"0","num_feature":"28","num_nodes":"25","size_leaf_vector":"1"}},{"base_weights":[1.7709493E-3,7.8816885E-1,-1.3052938E0,-9.288463E-1,1.0481118E0,-4.5107022E-1,5.403222E-1,-4.0797052E-1,1.9202237E-1,4.3550998E-1,1.3699008E0,-2.0733593E-2,2.9283738E-1,-4.1235206E-1,1.300604E0,1.4691806E0,3.6156848E-2,2.9273608E-1,-7.4409866E-1,1.2244079E-1,4.1634277E-1,1.4711583E-1,4.511347E-1,-3.8014486E-1,1.7302506E-1],"categories":[],"categories_nodes":[],"categories_segments":[],"categories_sizes":[],"default_left":[0,0,0,0,0,0,0,0,0,0,0,0,0,0,0,0,0,0,0,0,0,0,0,0,0],"id":1,"left_children":[1,3,5,7,9,-1,11,-1,-1,13,15,-1,-1,17,19,21,-1,-1,23,-1,-1,-1,-1,-1,-1],"loss_changes":[8.310998E1,2.3504803E1,1.1927273E1,5.7179694E0,8.13892E0,0E0,1.04541E0,0E0,0E0,1.2805277E1,3.3687744E0,0E0,0E0,4.965973E0,9.668636E-2,1.5644073E-1,0E0,0E0,6.256677E0,0E0,0E0,0E0,0E0,0E0,0E0],"parents":[2147483647,0,0,1,1,2,2,3,3,4,4,6,6,9,9,10,10,13,13,14,14,15,15,18,18],"right_children":[2,4,6,8,10,-1,12,-1,-1,14,16,-1,-1,18,20,22,-1,-1,24,-1,-1,-1,-1,-1,-1],"split_conditions":[0E0,-1.7411226E-1,1.882075E0,1.5564001E0,5.20377E-4,-4.5107022E-1,2.259515E-3,-4.0797052E-1,1.9202237E-1,-3.996209E-1,1E0,-2.0733593E-2,2.9283738E-1,-9.7646385E-1,2.952906E-1,-1.543539E0,3.6156848E-2,2.9273608E-1,1.3234665E0,1.2244079E-1,4.1634277E-1,1.4711583E-1,4.511347E-1,-3.8014486E-1,1.7302506E-1],"split_indices":[25,26,26,19,10,0,4,0,0,22,9,0,0,23,3,25,0,0,23,0,0,0,0,0,0],"split_type":[0,0,0,0,0,0,0,0,0,0,0,0,0,0,0,0,0,0,0,0,0,0,0,0,0],"sum_hessian":[7.885538E1,4.9481647E1,2.937373E1,6.16781E0,4.331384E1,2.6691597E1,2.6821332E0,4.942971E0,1.224839E0,1.5727057E1,2.758678E1,1.4691129E0,1.2130203E0,8.206939E0,7.5201187E0,2.5393036E1,2.1937442E0,1.2085596E0,6.9983797E0,1.1750185E0,6.3451004E0,1.3850746E0,2.4007961E1,5.042303E0,1.9560761E0],"tree_param":{"num_deleted":"0","num_feature":"28","num_nodes":"25","size_leaf_vector":"1"}},{"base_weights":[1.2293419E-2,6.655444E-1,-1.1045711E0,-7.626162E-1,8.8781774E-1,-3.896524E-1,4.6324036E-1,-3.4742618E-1,1.6182998E-1,3.8103554E-1,1.164318E0,-1.7020164E-2,2.539617E-1,-3.0634156E-1,1.1064177E0,1.2637393E0,2.8734198E-2,-3.3531088E-1,1.9400848E-1,3.6040974E-1,8.064255E-2,1.2528785E-1,3.890269E-1,2.638098E-1,-1.304312E-1],"categories":[],"categories_nodes":[],"categories_segments":[],"categories_sizes":[],"default_left":[0,0,0,0,0,0,0,0,0,0,0,0,0,0,0,0,0,0,0,0,0,0,0,0,0],"id":2,"left_children":[1,3,5,7,9,-1,11,-1,-1,13,15,-1,-1,17,19,21,-1,-1,23,-1,-1,-1,-1,-1,-1],"loss_changes":[5.157376E1,1.4831652E1,8.548536E0,3.993879E0,5.0277576E0,0E0,7.6825374E-1,0E0,0E0,7.9527035E0,2.5111046E0,0E0,0E0,3.717689E0,2.8517723E-1,8.938599E-2,0E0,0E0,3.0481892E0,0E0,0E0,0E0,0E0,0E0,0E0],"parents":[2147483647,0,0,1,1,2,2,3,3,4,4,6,6,9,9,10,10,13,13,14,14,15,15,18,18],"right_children":[2,4,6,8,10,-1,12,-1,-1,14,16,-1,-1,18,20,22,-1,-1,24,-1,-1,-1,-1,-1,-1],"split_conditions":[0E0,-1.7411226E-1,1.882075E0,1.5564001E0,5.20377E-4,-3.896524E-1,2.259515E-3,-3.4742618E-1,1.6182998E-1,-3.996209E-1,1E0,-1.7020164E-2,2.539617E-1,1.6576858E-2,2.3144598E-1,-1.543539E0,2.8734198E-2,-3.3531088E-1,8.0908895E-1,3.6040974E-1,8.064255E-2,1.2528785E-1,3.890269E-1,2.638098E-1,-1.304312E-1],"split_indices":[25,26,26,19,10,0,4,0,0,22,9,0,0,18,8,25,0,0,14,0,0,0,0,0,0],"split_type":[0,0,0,0,0,0,0,0,0,0,0,0,0,0,0,0,0,0,0,0,0,0,0,0,0],"sum_hessian":[6.868082E1,4.358952E1,2.5091295E1,5.543054E0,3.8046467E1,2.2477613E1,2.6136816E0,4.3364973E0,1.2065569E0,1.426994E1,2.3776525E1,1.4706358E0,1.1430459E0,7.6235213E0,6.6464186E0,2.158544E1,2.1910856E0,2.4373324E0,5.186189E0,5.579653E0,1.066766E0,1.3232722E0,2.0262169E1,2.2907672E0,2.895422E0],"tree_param":{"num_deleted":"0","num_feature":"28","num_nodes":"25","size_leaf_vector":"1"}},{"base_weights":[1.6643237E-2,4.9627194E-1,-3.4664893E-1,-7.5231826E-1,7.249672E-1,-3.249353E-1,1.5220985E-1,3.8714573E-2,9.379082E-1,8.979734E-1,-5.844969E-1,2.0745085E-3,1.0211978E0,3.0021587E-1,8.44612E-2,-1.1005316E0,3.2702193E-1,1.6628273E-1,-1.6230123E-1,3.8360077E-1,3.368988E-1,-3.8128766E-1,-9.2660055E-2,1.2684491E-1,2.0171847E-2,2.57425E-1,-2.087832E-1],"categories":[],"categories_nodes":[],"categories_segments":[],"categories_sizes":[],"default_left":[0,0,0,0,0,0,0,0,0,0,0,0,0,0,0,0,0,0,0,0,0,0,0,0,0,0,0],"id":3,"left_children":[1,3,-1,5,7,-1,-1,9,11,13,15,17,19,-1,-1,21,23,-1,-1,25,-1,-1,-1,-1,-1,-1,-1],"loss_changes":[3.386787E1,1.2745521E1,0E0,3.5102015E0,5.3150883E0,0E0,0E0,5.7273917E0,2.1729603E0,1.9094944E-3,3.2935462E0,1.2842914E0,1.2322826E0,0E0,0E0,1.7565155E-1,4.685977E-2,0E0,0E0,3.1821024E0,0E0,0E0,0E0,0E0,0E0,0E0,0E0],"parents":[2147483647,0,0,1,1,3,3,4,4,7,7,8,8,9,9,10,10,11,11,12,12,15,15,16,16,19,19],"right_children":[2,4,-1,6,8,-1,-1,10,12,14,16,18,20,-1,-1,22,24,-1,-1,26,-1,-1,-1,-1,-1,-1,-1],"split_conditions":[0E0,-1.7411226E-1,-3.4664893E-1,2.259515E-3,3.7463002E-3,-3.249353E-1,1.5220985E-1,-1.0870265E0,5.20377E-4,4.8224866E-1,9.9427265E-1,6.8600335E0,1.6576858E-2,3.0021587E-1,8.44612E-2,-9.613881E-1,5.20377E-4,1.6628273E-1,-1.6230123E-1,-9.773842E-1,3.368988E-1,-3.8128766E-1,-9.2660055E-2,1.2684491E-1,2.0171847E-2,2.57425E-1,-2.087832E-1],"split_indices":[24,26,0,7,3,0,0,24,14,12,26,0,18,0,0,24,2,0,0,24,0,0,0,0,0,0,0],"split_type":[0,0,0,0,0,0,0,0,0,0,0,0,0,0,0,0,0,0,0,0,0,0,0,0,0,0,0],"sum_hessian":[5.822254E1,4.1725475E1,1.6497068E1,6.104977E0,3.5620495E1,4.946238E0,1.1587392E0,8.715275E0,2.6905222E1,3.4784489E0,5.2368255E0,2.282638E0,2.4622583E1,2.4471655E0,1.0312834E0,3.211405E0,2.0254207E0,1.1215897E0,1.1610483E0,4.046461E0,2.0576122E1,2.1443503E0,1.0670547E0,1.0212554E0,1.0041652E0,2.9534855E0,1.0929759E0],"tree_param":{"num_deleted":"0","num_feature":"28","num_nodes":"27","size_leaf_vector":"1"}},{"base_weights":[1.0674337E-2,4.1933447E-1,-3.1635705E-1,-6.353134E-1,6.2222475E-1,-2.9803297E-1,1.4507481E-1,1.728225E-1,9.21508E-1,8.159769E-1,-2.961732E-1,1.0542405E0,-5.9168935E-2,3.0311856E-1,2.9906026E-1,-8.930722E-1,5.34964E-1,1.2115877E-1,3.3487332E-1,-2.592959E-1,2.3200487E-1,-4.411325E-2,1.8235953E-1,-1.0470795E-1,-3.094807E-1,2.639998E-1,-4.2092063E-2],"categories":[],"categories_nodes":[],"categories_segments":[],"categories_sizes":[],"default_left":[0,0,0,0,0,0,0,0,0,0,0,0,0,0,0,0,0,0,0,0,0,0,0,0,0,0,0],"id":4,"left_children":[1,3,-1,5,7,-1,-1,9,11,13,15,17,19,21,-1,23,25,-1,-1,-1,-1,-1,-1,-1,-1,-1,-1],"loss_changes":[2.2419613E1,8.356184E0,0E0,3.0839438E0,4.105279E0,0E0,0E0,4.4360824E0,2.5097122E0,2.6654577E-1,4.8311954E0,2.1913338E-1,2.8054957E0,5.0579065E-1,0E0,5.3097725E-2,1.1237773E0,0E0,0E0,0E0,0E0,0E0,0E0,0E0,0E0,0E0,0E0],"parents":[2147483647,0,0,1,1,3,3,4,4,7,7,8,8,9,9,10,10,11,11,12,12,13,13,15,15,16,16],"right_children":[2,4,-1,6,8,-1,-1,10,12,14,16,18,20,22,-1,24,26,-1,-1,-1,-1,-1,-1,-1,-1,-1,-1],"split_conditions":[0E0,-1.158366E-1,-3.1635705E-1,1.5564001E0,5.20377E-4,-2.9803297E-1,1.4507481E-1,-8.899225E-1,1E0,5.059477E0,-9.2974436E-1,5.20377E-4,2.259515E-3,5.9469646E-1,2.9906026E-1,-4.9973983E-1,-2.2779292E-1,1.2115877E-1,3.3487332E-1,-2.592959E-1,2.3200487E-1,-4.411325E-2,1.8235953E-1,-1.0470795E-1,-3.094807E-1,2.639998E-1,-4.2092063E-2],"split_indices":[24,26,0,19,10,0,0,25,9,0,24,14,7,19,0,20,24,0,0,0,0,0,0,0,0,0,0],"split_type":[0,0,0,0,0,0,0,0,0,0,0,0,0,0,0,0,0,0,0,0,0,0,0,0,0,0,0],"sum_hessian":[4.9487526E1,3.6204212E1,1.3283313E1,5.497297E0,3.0706917E1,4.249321E0,1.2479761E0,1.2905514E1,1.7801403E1,5.130287E0,7.7752266E0,1.561318E1,2.1882226E0,2.0353613E0,3.0949259E0,4.4819207E0,3.2933056E0,2.0128875E0,1.3600292E1,1.0929769E0,1.0952458E0,1.0305499E0,1.0048114E0,1.6239035E0,2.8580172E0,1.9789602E0,1.3143456E0],"tree_param":{"num_deleted":"0","num_feature":"28","num_nodes":"27","size_leaf_vector":"1"}},{"base_weights":[1.4056845E-2,3.733657E-1,-9.7158766E-1,-5.5694884E-1,5.5368376E-1,-3.0850103E-1,-8.27465E-2,-2.7728415E-1,1.3748087E-1,3.0709614E-4,7.5521314E-1,2.1726836E-1,-5.053968E-1,9.3262446E-1,3.105843E-1,-2.7376652E-1,7.281866E-2,3.870001E-1,3.1146988E-1,-2.728503E-1,2.4617407E-1,2.0755963E-1,-6.784192E-2,1.9886047E-1,-2.7920184E-1],"categories":[],"categories_nodes":[],"categories_segments":[],"categories_sizes":[],"default_left":[0,0,0,0,0,0,0,0,0,0,0,0,0,0,0,0,0,0,0,0,0,0,0,0,0],"id":5,"left_children":[1,3,5,7,9,-1,-1,-1,-1,11,13,-1,15,17,19,-1,-1,21,-1,23,-1,-1,-1,-1,-1],"loss_changes":[1.5398706E1,5.649007E0,1.7516518E-1,2.537053E0,3.0297031E0,0E0,0E0,0E0,0E0,3.387519E0,1.2813263E0,0E0,1.8810105E0,3.897171E-1,2.3601205E0,0E0,0E0,8.708508E-1,0E0,3.140039E0,0E0,0E0,0E0,0E0,0E0],"parents":[2147483647,0,0,1,1,2,2,3,3,4,4,9,9,10,10,12,12,13,13,14,14,17,17,19,19],"right_children":[2,4,6,8,10,-1,-1,-1,-1,12,14,-1,16,18,20,-1,-1,22,-1,24,-1,-1,-1,-1,-1],"split_conditions":[0E0,-1.158366E-1,1.5656056E0,2.259515E-3,3.7463002E-3,-3.0850103E-1,-8.27465E-2,-2.7728415E-1,1.3748087E-1,-1.0870265E0,1E0,2.1726836E-1,9.9427265E-1,5.20377E-4,1.9201465E-1,-2.7376652E-1,7.281866E-2,6.299642E0,3.1146988E-1,-8.825958E-3,2.4617407E-1,2.0755963E-1,-6.784192E-2,1.9886047E-1,-2.7920184E-1],"split_indices":[24,26,20,7,3,0,0,0,0,24,9,0,26,10,23,0,0,0,0,26,0,0,0,0,0],"split_type":[0,0,0,0,0,0,0,0,0,0,0,0,0,0,0,0,0,0,0,0,0,0,0,0,0],"sum_hessian":[4.145635E1,3.0836386E1,1.0619962E1,4.667364E0,2.6169022E1,9.377138E0,1.2428235E0,3.4930615E0,1.1743028E0,7.2534356E0,1.8915585E1,2.8053818E0,4.4480534E0,1.2736185E1,6.1794E0,2.7380922E0,1.7099615E0,2.8218133E0,9.914372E0,3.0990667E0,3.0803332E0,1.798945E0,1.0228684E0,1.2761453E0,1.8229213E0],"tree_param":{"num_deleted":"0","num_feature":"28","num_nodes":"25","size_leaf_vector":"1"}},{"base_weights":[1.3721783E-2,3.9822936E-1,-7.462629E-1,-1.5556227E-1,6.3957655E-1,-3.0011E-1,1.2981278E-1,5.0069976E-1,-5.158944E-1,-1.0773859E-1,7.312562E-1,1.1796114E-2,2.0502247E-1,6.512332E-2,-7.847929E-1,2.8154966E-1,2.489666E-1,-4.7476903E-2,-3.069077E-1,-2.3241943E-1,2.41427E-1,1.00974865E-1,-2.1325211E-1],"categories":[],"categories_nodes":[],"categories_segments":[],"categories_sizes":[],"default_left":[0,0,0,0,0,0,0,0,0,0,0,0,0,0,0,0,0,0,0,0,0,0,0],"id":6,"left_children":[1,3,5,7,9,-1,-1,11,13,-1,15,-1,-1,-1,17,-1,19,-1,-1,21,-1,-1,-1],"loss_changes":[1.0815869E1,3.381361E0,4.160024E0,2.210947E0,1.8463621E0,0E0,0E0,2.626323E-1,1.318059E0,0E0,1.3827734E0,0E0,0E0,0E0,5.063212E-1,0E0,1.8516574E0,0E0,0E0,1.3580728E0,0E0,0E0,0E0],"parents":[2147483647,0,0,1,1,2,2,3,3,4,4,7,7,8,8,10,10,14,14,16,16,19,19],"right_children":[2,4,6,8,10,-1,-1,12,14,-1,16,-1,-1,-1,18,-1,20,-1,-1,22,-1,-1,-1],"split_conditions":[0E0,3.7463002E-3,1.882075E0,-1.0915531E0,-2.611684E-1,-3.0011E-1,1.2981278E-1,2.259515E-3,-6.1874694E-1,-1.0773859E-1,1E0,1.1796114E-2,2.0502247E-1,6.512332E-2,6.335312E-1,2.8154966E-1,-3.996209E-1,-4.7476903E-2,-3.069077E-1,-4.616104E-1,2.41427E-1,1.00974865E-1,-2.1325211E-1],"split_indices":[25,3,26,24,26,0,0,8,22,0,9,0,0,0,18,0,22,0,0,19,0,0,0],"split_type":[0,0,0,0,0,0,0,0,0,0,0,0,0,0,0,0,0,0,0,0,0,0,0],"sum_hessian":[3.4995792E1,2.3554567E1,1.1441223E1,7.257367E0,1.6297201E1,9.53717E0,1.9040526E0,2.4343E0,4.823067E0,1.1249897E0,1.5172212E1,1.0352563E0,1.3990438E0,1.346218E0,3.4768493E0,9.950499E0,5.2217126E0,1.4163179E0,2.0605314E0,3.1099312E0,2.1117811E0,1.555908E0,1.5540233E0],"tree_param":{"num_deleted":"0","num_feature":"28","num_nodes":"23","size_leaf_vector":"1"}},{"base_weights":[1.1641061E-2,6.277478E-1,-4.0376264E-1,2.880794E-1,-9.310435E-3,-6.822208E-1,1.9420719E-1,1.7540751E-1,-1.9868538E-1,1.2583613E-1,-9.154653E-1,-1.7799021E-1,5.9654176E-1,-3.3404883E-2,-3.0460718E-1,2.5748485E-1,-6.343379E-2],"categories":[],"categories_nodes":[],"categories_segments":[],"categories_sizes":[],"default_left":[0,0,0,0,0,0,0,0,0,0,0,0,0,0,0,0,0],"id":7,"left_children":[1,3,5,-1,7,9,11,-1,-1,-1,13,-1,15,-1,-1,-1,-1],"loss_changes":[8.167607E0,2.7298117E0,3.3092084E0,0E0,2.4799404E0,3.7857108E0,2.5211098E0,0E0,0E0,0E0,7.897463E-1,0E0,1.2443374E0,0E0,0E0,0E0,0E0],"parents":[2147483647,0,0,1,1,2,2,4,4,5,5,6,6,10,10,12,12],"right_children":[2,4,6,-1,8,10,12,-1,-1,-1,14,-1,16,-1,-1,-1,-1],"split_conditions":[1E0,-1.7290324E-2,8.866237E-1,2.880794E-1,-9.672522E-1,-8.000607E-1,1.6576858E-2,1.7540751E-1,-1.9868538E-1,1.2583613E-1,-9.637707E-1,-1.7799021E-1,1.416412E-1,-3.3404883E-2,-3.0460718E-1,2.5748485E-1,-6.343379E-2],"split_indices":[6,20,26,0,25,23,18,0,0,0,25,0,16,0,0,0,0],"split_type":[0,0,0,0,0,0,0,0,0,0,0,0,0,0,0,0,0],"sum_hessian":[2.9922722E1,1.1844441E1,1.807828E1,7.4490285E0,4.3954134E0,1.223833E1,5.83995E0,2.356399E0,2.039014E0,1.9988583E0,1.0239471E1,1.8142298E0,4.02572E0,1.3651235E0,8.874349E0,2.993691E0,1.032029E0],"tree_param":{"num_deleted":"0","num_feature":"28","num_nodes":"17","size_leaf_vector":"1"}},{"base_weights":[1.0320299E-2,2.6089767E-1,-8.00592E-1,-2.2242004E-1,5.032522E-1,-2.6649117E-1,-5.519778E-2,1.1039969E-1,-4.9107087E-1,6.822291E-1,-3.536613E-2,-7.362084E-1,4.9730953E-2,8.639128E-1,1.251768E-1,-1.2966023E-1,9.886715E-2,-5.5744447E-2,-2.5593656E-1,2.9149652E-2,2.8853005E-1,-8.281412E-2,1.7828786E-1],"categories":[],"categories_nodes":[],"categories_segments":[],"categories_sizes":[],"default_left":[0,0,0,0,0,0,0,0,0,0,0,0,0,0,0,0,0,0,0,0,0,0,0],"id":8,"left_children":[1,3,5,7,9,-1,-1,-1,11,13,15,17,-1,19,21,-1,-1,-1,-1,-1,-1,-1,-1],"loss_changes":[5.6203485E0,2.5833766E0,1.8985844E-1,1.4084154E0,1.408355E0,0E0,0E0,0E0,1.0475528E0,9.8764086E-1,7.987423E-1,1.226511E-1,0E0,5.063982E-1,8.8536125E-1,0E0,0E0,0E0,0E0,0E0,0E0,0E0,0E0],"parents":[2147483647,0,0,1,1,2,2,3,3,4,4,8,8,9,9,10,10,11,11,13,13,14,14],"right_children":[2,4,6,8,10,-1,-1,-1,12,14,16,18,-1,20,22,-1,-1,-1,-1,-1,-1,-1,-1],"split_conditions":[0E0,3.7463002E-3,2.259515E-3,-1.0915531E0,1E0,-2.6649117E-1,-5.519778E-2,1.1039969E-1,9.9427265E-1,0E0,-5.142504E-1,4.372687E0,4.9730953E-2,1.122299E-1,2.259515E-3,-1.2966023E-1,9.886715E-2,-5.5744447E-2,-2.5593656E-1,2.9149652E-2,2.8853005E-1,-8.281412E-2,1.7828786E-1],"split_indices":[24,3,4,24,2,0,0,0,26,20,22,0,0,18,4,0,0,0,0,0,0,0,0],"split_type":[0,0,0,0,0,0,0,0,0,0,0,0,0,0,0,0,0,0,0,0,0,0,0],"sum_hessian":[2.5631767E1,2.0099234E1,5.532532E0,6.7400613E0,1.3359173E1,4.4577613E0,1.0747709E0,1.9921257E0,4.747936E0,9.827107E0,3.5320656E0,3.36956E0,1.3783758E0,6.994856E0,2.8322515E0,1.603732E0,1.9283338E0,1.0440096E0,2.3255503E0,1.0172244E0,5.977631E0,1.7484246E0,1.083827E0],"tree_param":{"num_deleted":"0","num_feature":"28","num_nodes":"23","size_leaf_vector":"1"}},{"base_weights":[5.817595E-3,5.2860546E-1,-3.4591103E-1,2.5195792E-1,-7.2549056E-4,-6.3524604E-1,9.0935595E-2,1.5140986E-1,-1.6600639E-1,9.535447E-2,-2.7203935E-1,-1.3564995E-1,4.0525755E-1,-2.395721E-2,2.1810628E-1],"categories":[],"categories_nodes":[],"categories_segments":[],"categories_sizes":[],"default_left":[0,0,0,0,0,0,0,0,0,0,0,0,0,0,0],"id":9,"left_children":[1,3,5,-1,7,9,11,-1,-1,-1,-1,-1,13,-1,-1],"loss_changes":[4.548921E0,1.6391807E0,1.9282598E0,0E0,1.5869501E0,2.624719E0,1.3391322E0,0E0,0E0,0E0,0E0,0E0,8.0983734E-1,0E0,0E0],"parents":[2147483647,0,0,1,1,2,2,4,4,5,5,6,6,12,12],"right_children":[2,4,6,-1,8,10,12,-1,-1,-1,-1,-1,14,-1,-1],"split_conditions":[1E0,-1.7290324E-2,5.315006E-1,2.5195792E-1,-9.672522E-1,-8.047228E-1,1.6576858E-2,1.5140986E-1,-1.6600639E-1,9.535447E-2,-2.7203935E-1,-1.3564995E-1,2.259515E-3,-2.395721E-2,2.1810628E-1],"split_indices":[6,20,26,0,25,23,18,0,0,0,0,0,17,0,0],"split_type":[0,0,0,0,0,0,0,0,0,0,0,0,0,0,0],"sum_hessian":[2.2744202E1,8.945412E0,1.379879E1,5.2636595E0,3.681752E0,8.027681E0,5.771108E0,1.9683046E0,1.7134472E0,1.7422459E0,6.2854357E0,1.9548571E0,3.816251E0,1.8216327E0,1.9946183E0],"tree_param":{"num_deleted":"0","num_feature":"28","num_nodes":"15","size_leaf_vector":"1"}},{"base_weights":[9.65266E-3,5.4592085E-1,-2.8575152E-1,-3.9232045E-2,7.829933E-1,-4.3350714E-1,1.8185079E-1,2.5983405E-1,5.7229035E-2,-6.6422254E-1,3.092509E-1,-9.203253E-2,-8.225897E-1,1.8346156E-1,-6.886336E-2,1.3635096E-1,-1.815218E-1,-2.1762915E-2,-2.7899534E-1],"categories":[],"categories_nodes":[],"categories_segments":[],"categories_sizes":[],"default_left":[0,0,0,0,0,0,0,0,0,0,0,0,0,0,0,0,0,0,0],"id":10,"left_children":[1,3,5,-1,7,9,-1,-1,-1,11,13,15,17,-1,-1,-1,-1,-1,-1],"loss_changes":[3.4861004E0,1.35535E0,2.135604E0,0E0,1.2654042E-1,2.3945193E0,0E0,0E0,0E0,8.363075E-1,7.446116E-1,1.2024783E0,5.5735826E-1,0E0,0E0,0E0,0E0,0E0,0E0],"parents":[2147483647,0,0,1,1,2,2,4,4,5,5,9,9,10,10,11,11,12,12],"right_children":[2,4,6,-1,8,10,-1,-1,-1,12,14,16,18,-1,-1,-1,-1,-1,-1],"split_conditions":[-8.899225E-1,5.20377E-4,1.6576858E-2,-3.9232045E-2,-7.5220084E-1,1.673539E0,1.8185079E-1,2.5983405E-1,5.7229035E-2,9.4013345E-1,8.377101E-1,-3.4760937E-1,-8.000607E-1,1.8346156E-1,-6.886336E-2,1.3635096E-1,-1.815218E-1,-2.1762915E-2,-2.7899534E-1],"split_indices":[25,14,12,0,21,26,0,0,0,6,9,20,23,0,0,0,0,0,0],"split_type":[0,0,0,0,0,0,0,0,0,0,0,0,0,0,0,0,0,0,0],"sum_hessian":[2.002127E1,6.8101945E0,1.3211077E1,1.8832033E0,4.926991E0,1.1774479E1,1.436598E0,3.9150486E0,1.0119426E0,9.064576E0,2.7099025E0,2.3077326E0,6.756843E0,1.6494685E0,1.0604341E0,1.1726358E0,1.1350969E0,1.0561507E0,5.7006927E0],"tree_param":{"num_deleted":"0","num_feature":"28","num_nodes":"19","size_leaf_vector":"1"}},{"base_weights":[1.7574703E-2,4.8095086E-1,-2.4541679E-1,-3.1378213E-2,7.1877533E-1,-3.8435733E-1,1.6138604E-1,2.4334499E-1,5.171534E-2,-6.0616016E-1,2.6410443E-1,-2.3977908E-1,-1.1378746E-1,1.6094513E-1,-5.870122E-2,1.0688153E-1,-1.7436205E-1],"categories":[],"categories_nodes":[],"categories_segments":[],"categories_sizes":[],"default_left":[0,0,0,0,0,0,0,0,0,0,0,0,0,0,0,0,0],"id":11,"left_children":[1,3,5,-1,7,9,-1,-1,-1,11,13,-1,15,-1,-1,-1,-1],"loss_changes":[2.3618004E0,1.0505643E0,1.5572603E0,0E0,1.1799145E-1,1.759767E0,0E0,0E0,0E0,7.258563E-1,5.4719234E-1,0E0,9.9498326E-1,0E0,0E0,0E0,0E0],"parents":[2147483647,0,0,1,1,2,2,4,4,5,5,9,9,10,10,12,12],"right_children":[2,4,6,-1,8,10,-1,-1,-1,12,14,-1,16,-1,-1,-1,-1],"split_conditions":[-8.899225E-1,5.20377E-4,1.6576858E-2,-3.1378213E-2,9.803316E-1,1.673539E0,1.6138604E-1,2.4334499E-1,5.171534E-2,5.20377E-4,8.377101E-1,-2.3977908E-1,-3.0316693E-1,1.6094513E-1,-5.870122E-2,1.0688153E-1,-1.7436205E-1],"split_indices":[25,14,12,0,8,26,0,0,0,10,9,0,23,0,0,0,0],"split_type":[0,0,0,0,0,0,0,0,0,0,0,0,0,0,0,0,0],"sum_hessian":[1.7412062E1,6.0042114E0,1.140785E1,1.8960856E0,4.1081257E0,1.012195E1,1.2859007E0,3.0995464E0,1.0085791E0,7.590794E0,2.531156E0,5.0047092E0,2.5860848E0,1.4847331E0,1.046423E0,1.4079615E0,1.1781234E0],"tree_param":{"num_deleted":"0","num_feature":"28","num_nodes":"17","size_leaf_vector":"1"}},{"base_weights":[2.5848998E-2,1.923839E-1,-1.8207315E-1,-2.0927434E-1,4.2728782E-1,8.4093854E-2,-4.3214092E-1,-1.27224E-2,5.554018E-1,-2.1566728E-1,3.1100737E-2,6.73205E-1,4.6668753E-2,2.423182E-1,2.1650383E-2],"categories":[],"categories_nodes":[],"categories_segments":[],"categories_sizes":[],"default_left":[0,0,0,0,0,0,0,0,0,0,0,0,0,0,0],"id":12,"left_children":[1,3,-1,5,7,-1,9,-1,11,-1,-1,13,-1,-1,-1],"loss_changes":[1.8471576E0,1.3875996E0,0E0,7.4837863E-1,5.657526E-1,0E0,7.419221E-1,0E0,2.3207474E-1,0E0,0E0,3.6397052E-1,0E0,0E0,0E0],"parents":[2147483647,0,0,1,1,3,3,4,4,6,6,8,8,11,11],"right_children":[2,4,-1,6,8,-1,10,-1,12,-1,-1,14,-1,-1,-1],"split_conditions":[0E0,3.7463002E-3,-1.8207315E-1,4.6474314E0,1.6576858E-2,8.4093854E-2,8.64585E-1,-1.27224E-2,0E0,-2.1566728E-1,3.1100737E-2,1E0,4.6668753E-2,2.423182E-1,2.1650383E-2],"split_indices":[24,3,0,0,18,0,23,0,20,0,0,2,0,0,0],"split_type":[0,0,0,0,0,0,0,0,0,0,0,0,0,0,0],"sum_hessian":[1.5421093E1,1.2759027E1,2.6620665E0,4.7485933E0,8.010433E0,1.404802E0,3.3437912E0,1.8600471E0,6.150386E0,1.9555485E0,1.3882427E0,4.2226057E0,1.9277802E0,3.1693602E0,1.0532458E0],"tree_param":{"num_deleted":"0","num_feature":"28","num_nodes":"15","size_leaf_vector":"1"}},{"base_weights":[2.217614E-2,-1.7342018E-1,1.9283344E-1,-3.091967E-2,1.952883E-1,-3.863172E-1,2.8132564E-1,-1.8359634E-1,1.3661602E-2,4.7815815E-1,-9.308261E-2,2.0288669E-1,3.6674127E-2],"categories":[],"categories_nodes":[],"categories_segments":[],"categories_sizes":[],"default_left":[0,0,0,0,0,0,0,0,0,0,0,0,0],"id":13,"left_children":[1,-1,3,5,-1,7,9,-1,-1,11,-1,-1,-1],"loss_changes":[1.6667941E0,0E0,1.3088549E0,1.1519531E0,0E0,4.9743664E-1,7.98491E-1,0E0,0E0,2.4049115E-1,0E0,0E0,0E0],"parents":[2147483647,0,0,2,2,3,3,5,5,6,6,9,9],"right_children":[2,-1,4,6,-1,8,10,-1,-1,12,-1,-1,-1],"split_conditions":[-8.2474224E-2,-1.7342018E-1,2.259515E-3,5.542537E-3,1.952883E-1,-9.2974436E-1,-8.798683E-1,-1.8359634E-1,1.3661602E-2,-1.0389302E0,-9.308261E-2,2.0288669E-1,3.6674127E-2],"split_indices":[26,0,4,16,0,24,21,0,0,24,0,0,0],"split_type":[0,0,0,0,0,0,0,0,0,0,0,0,0],"sum_hessian":[1.4183378E1,2.6113443E0,1.1572034E1,8.401287E0,3.1707463E0,3.818195E0,4.583092E0,2.2337933E0,1.5844018E0,3.5828066E0,1.0002856E0,1.7233043E0,1.8595023E0],"tree_param":{"num_deleted":"0","num_feature":"28","num_nodes":"13","size_leaf_vector":"1"}},{"base_weights":[1.8382529E-2,3.6635512E-1,-2.154535E-1,1.910084E-1,-5.1870767E-2,-1.9480756E-1,-3.323146E-2,9.030926E-2,-1.2087125E-1,-4.0271902E-1,1.9097757E-1,-3.5459694E-2,-1.5004866E-1,4.3183175E-1,-1.2602639E-1,1.665028E-1,4.847742E-3],"categories":[],"categories_nodes":[],"categories_segments":[],"categories_sizes":[],"default_left":[0,0,0,0,0,0,0,0,0,0,0,0,0,0,0,0,0],"id":14,"left_children":[1,3,5,-1,7,-1,9,-1,-1,11,13,-1,-1,15,-1,-1,-1],"loss_changes":[1.228377E0,7.168184E-1,6.96232E-1,0E0,5.299857E-1,0E0,6.938745E-1,0E0,0E0,2.7775407E-2,9.6339834E-1,0E0,0E0,2.114129E-1,0E0,0E0,0E0],"parents":[2147483647,0,0,1,1,2,2,4,4,6,6,9,9,10,10,13,13],"right_children":[2,4,6,-1,8,-1,10,-1,-1,12,14,-1,-1,16,-1,-1,-1],"split_conditions":[1E0,-1.7290324E-2,-5.498282E-2,1.910084E-1,-9.672522E-1,-1.9480756E-1,3.7463002E-3,9.030926E-2,-1.2087125E-1,5.2185863E-1,6.141641E0,-3.5459694E-2,-1.5004866E-1,-2.086054E-1,-1.2602639E-1,1.665028E-1,4.847742E-3],"split_indices":[6,20,26,0,25,0,3,0,0,19,0,0,0,21,0,0,0],"split_type":[0,0,0,0,0,0,0,0,0,0,0,0,0,0,0,0,0],"sum_hessian":[1.31264E1,5.0478907E0,8.078509E0,2.7487435E0,2.2991471E0,1.6310694E0,6.4474397E0,1.2175554E0,1.0815916E0,2.1341949E0,4.313245E0,1.1090198E0,1.0251752E0,3.3041952E0,1.0090497E0,2.2902968E0,1.0138985E0],"tree_param":{"num_deleted":"0","num_feature":"28","num_nodes":"17","size_leaf_vector":"1"}},{"base_weights":[1.7311216E-3,-2.4715012E-1,3.1944218E-1,-1.8232998E-1,-1.0571642E-2,5.4941493E-1,-1.1104517E-1,-1.18751615E-1,2.3613846E-1,2.0991293E-1,-5.045622E-3,-2.6741028E-2,1.5980965E-1],"categories":[],"categories_nodes":[],"categories_segments":[],"categories_sizes":[],"default_left":[0,0,0,0,0,0,0,0,0,0,0,0,0],"id":15,"left_children":[1,3,5,-1,7,9,-1,-1,11,-1,-1,-1,-1],"loss_changes":[1.1088716E0,6.647807E-1,1.179883E0,0E0,6.4176226E-1,4.3899477E-1,0E0,0E0,4.4712633E-1,0E0,0E0,0E0,0E0],"parents":[2147483647,0,0,1,1,2,2,4,4,5,5,8,8],"right_children":[2,4,6,-1,8,10,-1,-1,12,-1,-1,-1,-1],"split_conditions":[5.20377E-4,1.6576858E-2,1E0,-1.8232998E-1,3.7463002E-3,1E0,-1.1104517E-1,-1.18751615E-1,8.866237E-1,2.0991293E-1,-5.045622E-3,-2.6741028E-2,1.5980965E-1],"split_indices":[10,18,9,0,11,15,0,0,26,0,0,0,0],"split_type":[0,0,0,0,0,0,0,0,0,0,0,0,0],"sum_hessian":[1.2025055E1,6.867467E0,5.157588E0,2.0989912E0,4.768476E0,4.0201735E0,1.1374143E0,1.6255374E0,3.1429384E0,2.9906442E0,1.0295292E0,1.8324692E0,1.3104692E0],"tree_param":{"num_deleted":"0","num_feature":"28","num_nodes":"13","size_leaf_vector":"1"}},{"base_weights":[-2.2218905E-3,3.408601E-1,-2.0358421E-1,-3.2372147E-2,1.6851252E-1,-1.854876E-1,3.2470617E-2,1.1030239E-1,-1.701412E-1,-1.6186698E-1,1.4166775E-1],"categories":[],"categories_nodes":[],"categories_segments":[],"categories_sizes":[],"default_left":[0,0,0,0,0,0,0,0,0,0,0],"id":16,"left_children":[1,3,5,-1,-1,-1,7,-1,9,-1,-1],"loss_changes":[9.052073E-1,5.411515E-1,8.276979E-1,0E0,0E0,0E0,4.841484E-1,0E0,1.3351257E0,0E0,0E0],"parents":[2147483647,0,0,1,1,2,2,6,6,8,8],"right_children":[2,4,6,-1,-1,-1,8,-1,10,-1,-1],"split_conditions":[-8.899225E-1,5.20377E-4,1.6576858E-2,-3.2372147E-2,1.6851252E-1,-1.854876E-1,-6.984127E-1,1.1030239E-1,1.673539E0,-1.6186698E-1,1.4166775E-1],"split_indices":[25,14,18,0,0,0,23,0,26,0,0],"split_type":[0,0,0,0,0,0,0,0,0,0,0],"sum_hessian":[1.1098549E1,3.8485696E0,7.2499795E0,1.437976E0,2.4105937E0,2.0424585E0,5.207521E0,1.6549207E0,3.5526004E0,2.3571115E0,1.1954888E0],"tree_param":{"num_deleted":"0","num_feature":"28","num_nodes":"11","size_leaf_vector":"1"}},{"base_weights":[1.2305495E-3,-1.6497514E-1,4.1751468E-1,7.113015E-2,-4.353679E-1,1.854092E-2,1.6190891E-1,-3.5700232E-1,1.4937662E-1,1.8180724E-2,-1.9746055E-1,-3.0198239E-2,-1.3540877E-1],"categories":[],"categories_nodes":[],"categories_segments":[],"categories_sizes":[],"default_left":[0,0,0,0,0,0,0,0,0,0,0,0,0],"id":17,"left_children":[1,3,5,7,9,-1,-1,11,-1,-1,-1,-1,-1],"loss_changes":[8.4251875E-1,5.8688605E-1,1.1761868E-1,1.1842406E0,5.040256E-1,0E0,0E0,3.5166383E-2,0E0,0E0,0E0,0E0,0E0],"parents":[2147483647,0,0,1,1,2,2,3,3,4,4,7,7],"right_children":[2,4,6,8,10,-1,-1,12,-1,-1,-1,-1,-1],"split_conditions":[2.259515E-3,0E0,7.3568094E-1,2.259515E-3,9.4052327E-1,1.854092E-2,1.6190891E-1,7.9834515E-1,1.4937662E-1,1.8180724E-2,-1.9746055E-1,-3.0198239E-2,-1.3540877E-1],"split_indices":[4,20,26,13,14,0,0,15,0,0,0,0,0],"split_type":[0,0,0,0,0,0,0,0,0,0,0,0,0],"sum_hessian":[1.018157E1,7.7078342E0,2.4737356E0,4.508221E0,3.1996129E0,1.0174444E0,1.4562912E0,2.3322084E0,2.176013E0,1.2175967E0,1.9820161E0,1.1835948E0,1.1486137E0],"tree_param":{"num_deleted":"0","num_feature":"28","num_nodes":"13","size_leaf_vector":"1"}},{"base_weights":[-7.69265E-4,-2.9048306E-1,2.0465517E-1,3.7662037E-2,-4.4616506E-1,3.5171208E-1,-8.016661E-2,-3.7025414E-2,-1.65318E-1,1.5929432E-1,5.2596E-2,6.0520444E-2,-3.8883604E-2],"categories":[],"categories_nodes":[],"categories_segments":[],"categories_sizes":[],"default_left":[0,0,0,0,0,0,0,0,0,0,0,0,0],"id":18,"left_children":[1,3,5,-1,7,9,-1,-1,-1,-1,11,-1,-1],"loss_changes":[6.9080216E-1,3.6783952E-1,5.65429E-1,0E0,5.8033228E-2,2.7296793E-1,0E0,0E0,0E0,0E0,1.1345133E-1,0E0,0E0],"parents":[2147483647,0,0,1,1,2,2,4,4,5,5,10,10],"right_children":[2,4,6,-1,8,10,-1,-1,-1,-1,12,-1,-1],"split_conditions":[3.7463002E-3,-1.0915531E0,3.7209302E-2,3.7662037E-2,-5.704817E-1,1E0,-8.016661E-2,-3.7025414E-2,-1.65318E-1,1.5929432E-1,-1.1366808E-1,6.0520444E-2,-3.8883604E-2],"split_indices":[3,24,25,0,22,9,0,0,0,0,19,0,0],"split_type":[0,0,0,0,0,0,0,0,0,0,0,0,0],"sum_hessian":[9.608431E0,3.814587E0,5.793844E0,1.0914793E0,2.7231078E0,4.6113925E0,1.1824517E0,1.2018301E0,1.5212775E0,2.3986464E0,2.212746E0,1.15786E0,1.0548857E0],"tree_param":{"num_deleted":"0","num_feature":"28","num_nodes":"13","size_leaf_vector":"1"}},{"base_weights":[-6.29011E-3,-1.3302402E-1,1.2435015E-1,-5.1917072E-2,1.4423941E-1,9.814964E-2,-1.8519926E-1,-4.076189E-1,4.5422617E-2,-1.572157E-1,-1.6477954E-2],"categories":[],"categories_nodes":[],"categories_segments":[],"categories_sizes":[],"default_left":[0,0,0,0,0,0,0,0,0,0,0],"id":19,"left_children":[1,-1,3,5,-1,-1,7,9,-1,-1,-1],"loss_changes":[6.3484955E-1,0E0,5.6509084E-1,3.9681944E-1,0E0,0E0,4.7814512E-1,1.1987096E-1,0E0,0E0,0E0],"parents":[2147483647,0,0,2,2,3,3,6,6,7,7],"right_children":[2,-1,4,6,-1,-1,8,10,-1,-1,-1],"split_conditions":[-8.2474224E-2,-1.3302402E-1,2.259515E-3,2.2909507E-2,1.4423941E-1,9.814964E-2,5.20377E-4,7.0019734E-1,4.5422617E-2,-1.572157E-1,-1.6477954E-2],"split_indices":[26,0,4,26,0,0,10,23,0,0,0],"split_type":[0,0,0,0,0,0,0,0,0,0,0],"sum_hessian":[9.151509E0,1.5548418E0,7.5966673E0,5.6547046E0,1.9419625E0,1.0925581E0,4.5621467E0,2.619985E0,1.9421617E0,1.6044501E0,1.0155349E0],"tree_param":{"num_deleted":"0","num_feature":"28","num_nodes":"11","size_leaf_vector":"1"}},{"base_weights":[-7.1716085E-3,2.8022963E-1,-1.9993784E-1,1.4625292E-1,-1.4953463E-2,6.519503E-2,-3.27484E-1,-1.8414293E-1,7.3537226E-3,7.084317E-2,-7.119831E-2],"categories":[],"categories_nodes":[],"categories_segments":[],"categories_sizes":[],"default_left":[0,0,0,0,0,0,0,0,0,0,0],"id":20,"left_children":[1,3,5,-1,-1,-1,7,-1,9,-1,-1],"loss_changes":[5.949477E-1,3.1997338E-1,4.1208905E-1,0E0,0E0,0E0,5.131314E-1,0E0,2.4825697E-1,0E0,0E0],"parents":[2147483647,0,0,1,1,2,2,6,6,8,8],"right_children":[2,4,6,-1,-1,-1,8,-1,10,-1,-1],"split_conditions":[1E0,-1.7290324E-2,-7.3419297E-1,1.4625292E-1,-1.4953463E-2,6.519503E-2,5.315006E-1,-1.8414293E-1,7.8123575E-1,7.084317E-2,-7.119831E-2],"split_indices":[6,20,23,0,0,0,26,0,9,0,0],"split_type":[0,0,0,0,0,0,0,0,0,0,0],"sum_hessian":[8.727564E0,3.3215833E0,5.4059806E0,1.747328E0,1.5742552E0,1.1008457E0,4.3051353E0,1.8715678E0,2.4335673E0,1.2756547E0,1.1579126E0],"tree_param":{"num_deleted":"0","num_feature":"28","num_nodes":"11","size_leaf_vector":"1"}},{"base_weights":[-5.1056E-3,2.2859016E-1,-1.9684798E-1,-5.8521293E-2,4.4784734E-1,-1.5162973E-1,8.15331E-3,2.585396E-2,1.7420639E-1,7.738899E-2,-1.7712165E-1,-1.3422678E-1,5.6289617E-2],"categories":[],"categories_nodes":[],"categories_segments":[],"categories_sizes":[],"default_left":[0,0,0,0,0,0,0,0,0,0,0,0,0],"id":21,"left_children":[1,3,5,-1,7,-1,9,-1,-1,-1,11,-1,-1],"loss_changes":[4.60111E-1,5.1818156E-1,3.6002728E-1,0E0,1.11367464E-1,0E0,2.4769583E-1,0E0,0E0,0E0,3.8947618E-1,0E0,0E0],"parents":[2147483647,0,0,1,1,2,2,4,4,6,6,10,10],"right_children":[2,4,6,-1,8,-1,10,-1,-1,-1,12,-1,-1],"split_conditions":[-7.124031E-1,-1.2372386E0,1.6576858E-2,-5.8521293E-2,-1.543539E0,-1.5162973E-1,-6.984127E-1,2.585396E-2,1.7420639E-1,7.738899E-2,1.0171821E0,-1.3422678E-1,5.6289617E-2],"split_indices":[25,21,18,0,25,0,23,0,0,0,26,0,0],"split_type":[0,0,0,0,0,0,0,0,0,0,0,0,0],"sum_hessian":[8.263986E0,3.6379166E0,4.626069E0,1.2782736E0,2.359643E0,1.2615595E0,3.3645098E0,1.0767808E0,1.2828622E0,1.2656635E0,2.0988462E0,1.0753297E0,1.0235165E0],"tree_param":{"num_deleted":"0","num_feature":"28","num_nodes":"13","size_leaf_vector":"1"}},{"base_weights":[-4.937E-3,-2.442143E-1,1.7294031E-1,2.2349557E-2,-3.788932E-1,1.2883991E-1,-4.4109903E-2,-2.8652055E-2,-1.4374372E-1,5.7041902E-2,-7.918555E-2],"categories":[],"categories_nodes":[],"categories_segments":[],"categories_sizes":[],"default_left":[0,0,0,0,0,0,0,0,0,0,0],"id":22,"left_children":[1,3,5,-1,7,-1,9,-1,-1,-1,-1],"loss_changes":[4.1588455E-1,2.0670341E-1,3.319147E-1,0E0,4.1945457E-2,0E0,2.5368798E-1,0E0,0E0,0E0,0E0],"parents":[2147483647,0,0,1,1,2,2,4,4,6,6],"right_children":[2,4,6,-1,8,-1,10,-1,-1,-1,-1],"split_conditions":[3.7463002E-3,-1.0870265E0,-7.124031E-1,2.2349557E-2,-5.142504E-1,1.2883991E-1,0E0,-2.8652055E-2,-1.4374372E-1,5.7041902E-2,-7.918555E-2],"split_indices":[3,24,25,0,22,0,20,0,0,0,0],"split_type":[0,0,0,0,0,0,0,0,0,0,0],"sum_hessian":[7.778959E0,3.1579738E0,4.620985E0,1.0708022E0,2.0871716E0,1.6693609E0,2.9516242E0,1.0556896E0,1.0314821E0,1.494397E0,1.4572271E0],"tree_param":{"num_deleted":"0","num_feature":"28","num_nodes":"11","size_leaf_vector":"1"}},{"base_weights":[-8.604618E-3,-1.2114147E-1,9.9335305E-2,-2.484907E-1,6.2124774E-2,-4.9442608E-2,-1.4012437E-1,5.4789968E-2,-5.8816433E-2],"categories":[],"categories_nodes":[],"categories_segments":[],"categories_sizes":[],"default_left":[0,0,0,0,0,0,0,0,0],"id":23,"left_children":[1,3,-1,5,-1,7,-1,-1,-1],"loss_changes":[3.649136E-1,3.4880987E-1,0E0,2.196841E-1,0E0,1.732282E-1,0E0,0E0,0E0],"parents":[2147483647,0,0,1,1,3,3,5,5],"right_children":[2,4,-1,6,-1,8,-1,-1,-1],"split_conditions":[2.259515E-3,2.259515E-3,9.9335305E-2,6E0,6.2124774E-2,-6.984127E-1,-1.4012437E-1,5.4789968E-2,-5.8816433E-2],"split_indices":[7,4,0,0,0,23,0,0,0],"split_type":[0,0,0,0,0,0,0,0,0],"sum_hessian":[7.4957023E0,6.1138353E0,1.3818669E0,4.5798144E0,1.534021E0,3.0388403E0,1.5409741E0,1.0813912E0,1.957449E0],"tree_param":{"num_deleted":"0","num_feature":"28","num_nodes":"9","size_leaf_vector":"1"}},{"base_weights":[-4.627773E-3,-1.7253427E-1,2.3650959E-1,-1.3326538E-1,7.8580305E-3,1.293799E-1,-2.0758677E-2,-7.743628E-2,1.892397E-1,1.1023317E-1,-2.6710296E-2],"categories":[],"categories_nodes":[],"categories_segments":[],"categories_sizes":[],"default_left":[0,0,0,0,0,0,0,0,0,0,0],"id":24,"left_children":[1,3,5,-1,7,-1,-1,-1,9,-1,-1],"loss_changes":[3.748757E-1,2.7021426E-1,2.5660467E-1,0E0,2.5403944E-1,0E0,0E0,0E0,1.8672869E-1,0E0,0E0],"parents":[2147483647,0,0,1,1,2,2,4,4,8,8],"right_children":[2,4,6,-1,8,-1,-1,-1,10,-1,-1],"split_conditions":[5.20377E-4,1.6576858E-2,6E0,-1.3326538E-1,1.9668417E-2,1.293799E-1,-2.0758677E-2,-7.743628E-2,-1.6537516E-1,1.1023317E-1,-2.6710296E-2],"split_indices":[10,18,0,0,9,0,0,0,20,0,0],"split_type":[0,0,0,0,0,0,0,0,0,0,0],"sum_hessian":[7.25097E0,4.442269E0,2.808701E0,1.1890162E0,3.2532527E0,1.4647934E0,1.3439075E0,1.1474885E0,2.1057644E0,1.0883534E0,1.017411E0],"tree_param":{"num_deleted":"0","num_feature":"28","num_nodes":"11","size_leaf_vector":"1"}},{"base_weights":[-5.3133797E-3,-1.0723976E-1,1.0181105E-1,-3.4589715E-2,1.0914356E-1,1.3176586E-1,-7.0834406E-2,-5.7466716E-2,1.2917036E-1],"categories":[],"categories_nodes":[],"categories_segments":[],"categories_sizes":[],"default_left":[0,0,0,0,0,0,0,0,0],"id":25,"left_children":[1,-1,3,5,-1,7,-1,-1,-1],"loss_changes":[3.3699766E-1,0E0,2.587479E-1,2.1358915E-1,0E0,4.3254378E-1,0E0,0E0,0E0],"parents":[2147483647,0,0,2,2,3,3,5,5],"right_children":[2,-1,4,6,-1,8,-1,-1,-1],"split_conditions":[-8.2474224E-2,-1.0723976E-1,2.259515E-3,0E0,1.0914356E-1,2.259515E-3,-7.0834406E-2,-5.7466716E-2,1.2917036E-1],"split_indices":[26,0,4,20,0,13,0,0,0],"split_type":[0,0,0,0,0,0,0,0,0],"sum_hessian":[6.968472E0,1.0802898E0,5.888182E0,4.4430537E0,1.4451284E0,2.6235292E0,1.8195244E0,1.432452E0,1.1910774E0],"tree_param":{"num_deleted":"0","num_feature":"28","num_nodes":"9","size_leaf_vector":"1"}},{"base_weights":[-2.9191547E-3,-1.08738944E-1,9.042583E-2,-2.1014397E-1,5.025206E-2,-1.2810594E-1,2.7409395E-2],"categories":[],"categories_nodes":[],"categories_segments":[],"categories_sizes":[],"default_left":[0,0,0,0,0,0,0],"id":26,"left_children":[1,3,-1,5,-1,-1,-1],"loss_changes":[2.8101507E-1,2.1600303E-1,0E0,3.767386E-1,0E0,0E0,0E0],"parents":[2147483647,0,0,1,1,3,3],"right_children":[2,4,-1,6,-1,-1,-1],"split_conditions":[2.259515E-3,1.6576858E-2,9.042583E-2,8.866237E-1,5.025206E-2,-1.2810594E-1,2.7409395E-2],"split_indices":[7,12,0,26,0,0,0],"split_type":[0,0,0,0,0,0,0],"sum_hessian":[6.7080803E0,5.4543014E0,1.2537794E0,4.164772E0,1.289529E0,2.1802418E0,1.9845302E0],"tree_param":{"num_deleted":"0","num_feature":"28","num_nodes":"7","size_leaf_vector":"1"}},{"base_weights":[2.337506E-3,-2.1286607E-1,1.6399415E-1,-9.977224E-2,1.2767191E-2,1.00668035E-1,-2.0795114E-2],"categories":[],"categories_nodes":[],"categories_segments":[],"categories_sizes":[],"default_left":[0,0,0,0,0,0,0],"id":27,"left_children":[1,3,5,-1,-1,-1,-1],"loss_changes":[2.946938E-1,1.2540081E-1,2.1655919E-1,0E0,0E0,0E0,0E0],"parents":[2147483647,0,0,1,1,2,2],"right_children":[2,4,6,-1,-1,-1,-1],"split_conditions":[3.7463002E-3,5.449489E-3,1E0,-9.977224E-2,1.2767191E-2,1.00668035E-1,-2.0795114E-2],"split_indices":[3,1,9,0,0,0,0],"split_type":[0,0,0,0,0,0,0],"sum_hessian":[6.4674277E0,2.6383607E0,3.8290672E0,1.5907716E0,1.0475893E0,1.9539638E0,1.8751034E0],"tree_param":{"num_deleted":"0","num_feature":"28","num_nodes":"7","size_leaf_vector":"1"}},{"base_weights":[9.092999E-4,-7.229985E-2,1.1537192E-1,2.3692109E-1,-4.3192267E-2,9.534411E-2,1.0733856E-2],"categories":[],"categories_nodes":[],"categories_segments":[],"categories_sizes":[],"default_left":[0,0,0,0,0,0,0],"id":28,"left_children":[1,-1,3,5,-1,-1,-1],"loss_changes":[2.3127352E-1,0E0,2.1266861E-1,5.7531685E-2,0E0,0E0,0E0],"parents":[2147483647,0,0,2,2,3,3],"right_children":[2,-1,4,6,-1,-1,-1],"split_conditions":[1.6576858E-2,-7.229985E-2,1E0,9.945505E-1,-4.3192267E-2,9.534411E-2,1.0733856E-2],"split_indices":[18,0,2,14,0,0,0],"split_type":[0,0,0,0,0,0,0],"sum_hessian":[6.348231E0,1.6839124E0,4.6643186E0,3.234742E0,1.4295765E0,1.8932775E0,1.3414644E0],"tree_param":{"num_deleted":"0","num_feature":"28","num_nodes":"7","size_leaf_vector":"1"}},{"base_weights":[-4.720514E-4,2.0348187E-1,-1.2837233E-1,-2.7403528E-2,1.2213611E-1,-1.23563E-1,4.3054525E-2,6.1811298E-2,-4.22217E-2],"categories":[],"categories_nodes":[],"categories_segments":[],"categories_sizes":[],"default_left":[0,0,0,0,0,0,0,0,0],"id":29,"left_children":[1,3,5,-1,-1,-1,7,-1,-1],"loss_changes":[2.1506768E-1,2.2801785E-1,2.6388374E-1,0E0,0E0,0E0,1.5066515E-1,0E0,0E0],"parents":[2147483647,0,0,1,1,2,2,6,6],"right_children":[2,4,6,-1,-1,-1,8,-1,-1],"split_conditions":[-8.899225E-1,5.542537E-3,8.085333E-2,-2.7403528E-2,1.2213611E-1,-1.23563E-1,0E0,6.1811298E-2,-4.22217E-2],"split_indices":[25,16,18,0,0,0,20,0,0],"split_type":[0,0,0,0,0,0,0,0,0],"sum_hessian":[6.2432714E0,2.1784704E0,4.0648007E0,1.1152505E0,1.0632199E0,1.0031544E0,3.0616465E0,1.5585439E0,1.5031025E0],"tree_param":{"num_deleted":"0","num_feature":"28","num_nodes":"9","size_leaf_vector":"1"}},{"base_weights":[-1.6032513E-3,-1.8630685E-1,1.404463E-1,-4.4871615E-3,-8.280227E-2,1.0277539E-1,-4.4184767E-2,2.956297E-2,-5.003586E-2],"categories":[],"categories_nodes":[],"categories_segments":[],"categories_sizes":[],"default_left":[0,0,0,0,0,0,0,0,0],"id":30,"left_children":[1,3,5,-1,-1,-1,7,-1,-1],"loss_changes":[2.108345E-1,4.9508326E-2,1.8490283E-1,0E0,0E0,0E0,7.353571E-2,0E0,0E0],"parents":[2147483647,0,0,1,1,2,2,6,6],"right_children":[2,4,6,-1,-1,-1,8,-1,-1],"split_conditions":[3.7463002E-3,7.9834515E-1,-9.773842E-1,-4.4871615E-3,-8.280227E-2,1.0277539E-1,0E0,2.956297E-2,-5.003586E-2],"split_indices":[3,15,24,0,0,0,20,0,0],"split_type":[0,0,0,0,0,0,0,0,0],"sum_hessian":[6.0384555E0,2.489655E0,3.5488005E0,1.2563925E0,1.2332624E0,1.2856894E0,2.263111E0,1.1363944E0,1.1267167E0],"tree_param":{"num_deleted":"0","num_feature":"28","num_nodes":"9","size_leaf_vector":"1"}},{"base_weights":[-1.5369297E-3,-9.143726E-2,7.759786E-2,6.726285E-2,-8.3604746E-2,-4.2162113E-2,1.0069179E-1],"categories":[],"categories_nodes":[],"categories_segments":[],"categories_sizes":[],"default_left":[0,0,0,0,0,0,0],"id":31,"left_children":[1,3,-1,5,-1,-1,-1],"loss_changes":[1.8564E-1,1.9364068E-1,0E0,2.6975757E-1,0E0,0E0,0E0],"parents":[2147483647,0,0,1,1,3,3],"right_children":[2,4,-1,6,-1,-1,-1],"split_conditions":[2.259515E-3,6E0,7.759786E-2,5.20377E-4,-8.3604746E-2,-4.2162113E-2,1.0069179E-1],"split_indices":[7,0,0,10,0,0,0],"split_type":[0,0,0,0,0,0,0],"sum_hessian":[5.9250455E0,4.8856063E0,1.0394394E0,2.9911914E0,1.8944147E0,1.9543071E0,1.0368843E0],"tree_param":{"num_deleted":"0","num_feature":"28","num_nodes":"7","size_leaf_vector":"1"}},{"base_weights":[6.9417027E-3,-1.6254178E-1,1.3757536E-1,-7.756633E-2,2.8807546E-3,9.155175E-2,-1.2560475E-2,3.2386456E-2,-4.0420394E-2],"categories":[],"categories_nodes":[],"categories_segments":[],"categories_sizes":[],"default_left":[0,0,0,0,0,0,0,0,0],"id":32,"left_children":[1,3,5,-1,-1,-1,7,-1,-1],"loss_changes":[1.7177221E-1,5.8608733E-2,1.1335371E-1,0E0,0E0,0E0,6.2491275E-2,0E0,0E0],"parents":[2147483647,0,0,1,1,2,2,6,6],"right_children":[2,4,6,-1,-1,-1,8,-1,-1],"split_conditions":[3.7463002E-3,1.9668417E-2,-7.124031E-1,-7.756633E-2,2.8807546E-3,9.155175E-2,0E0,3.2386456E-2,-4.0420394E-2],"split_indices":[3,9,25,0,0,0,20,0,0],"split_type":[0,0,0,0,0,0,0,0,0],"sum_hessian":[5.748366E0,2.3958044E0,3.3525615E0,1.2157577E0,1.1800466E0,1.0962127E0,2.2563488E0,1.1944764E0,1.0618725E0],"tree_param":{"num_deleted":"0","num_feature":"28","num_nodes":"9","size_leaf_vector":"1"}},{"base_weights":[6.4580026E-3,1.7612146E-1,-1.0479954E-1,9.958004E-2,-2.0511918E-2,-7.226336E-2,2.4884535E-2],"categories":[],"categories_nodes":[],"categories_segments":[],"categories_sizes":[],"default_left":[0,0,0,0,0,0,0],"id":33,"left_children":[1,3,5,-1,-1,-1,-1],"loss_changes":[1.4413191E-1,1.3735574E-1,1.3872793E-1,0E0,0E0,0E0,0E0],"parents":[2147483647,0,0,1,1,2,2],"right_children":[2,4,6,-1,-1,-1,-1],"split_conditions":[1E0,-3.5208065E-2,-4.9973983E-1,9.958004E-2,-2.0511918E-2,-7.226336E-2,2.4884535E-2],"split_indices":[6,20,20,0,0,0,0],"split_type":[0,0,0,0,0,0,0],"sum_hessian":[5.6577773E0,2.0098407E0,3.6479366E0,1.0091169E0,1.0007238E0,1.9509313E0,1.6970053E0],"tree_param":{"num_deleted":"0","num_feature":"28","num_nodes":"7","size_leaf_vector":"1"}},{"base_weights":[9.625003E-3,-1.4380401E-1,1.2780058E-1,6.679392E-4,-6.79387E-2,2.2113362E-1,-2.0267796E-2,4.1649924E-3,9.711165E-2],"categories":[],"categories_nodes":[],"categories_segments":[],"categories_sizes":[],"default_left":[0,0,0,0,0,0,0,0,0],"id":34,"left_children":[1,3,5,-1,-1,7,-1,-1,-1],"loss_changes":[1.371479E-1,4.0586486E-2,9.206369E-2,0E0,0E0,6.132804E-2,0E0,0E0,0E0],"parents":[2147483647,0,0,1,1,2,2,5,5],"right_children":[2,4,6,-1,-1,8,-1,-1,-1],"split_conditions":[3.7463002E-3,7.9834515E-1,7E0,6.679392E-4,-6.79387E-2,5.329914E-1,-2.0267796E-2,4.1649924E-3,9.711165E-2],"split_indices":[3,15,0,0,0,26,0,0,0],"split_type":[0,0,0,0,0,0,0,0,0],"sum_hessian":[5.550437E0,2.3206441E0,3.2297928E0,1.190493E0,1.1301513E0,2.096339E0,1.1334537E0,1.069906E0,1.026433E0],"tree_param":{"num_deleted":"0","num_feature":"28","num_nodes":"9","size_leaf_vector":"1"}},{"base_weights":[9.156574E-3,1.10043325E-1,-5.5955414E-2,-3.2969266E-2,1.9498813E-1,1.19947866E-1,-6.498552E-3],"categories":[],"categories_nodes":[],"categories_segments":[],"categories_sizes":[],"default_left":[0,0,0,0,0,0,0],"id":35,"left_children":[1,3,-1,-1,5,-1,-1],"loss_changes":[1.4861357E-1,1.1316322E-1,0E0,0E0,1.818485E-1,0E0,0E0],"parents":[2147483647,0,0,1,1,4,4],"right_children":[2,4,-1,-1,6,-1,-1],"split_conditions":[-6.875E-1,-1.1823584E0,-5.5955414E-2,-3.2969266E-2,-7.124031E-1,1.19947866E-1,-6.498552E-3],"split_indices":[21,21,0,0,25,0,0],"split_type":[0,0,0,0,0,0,0],"sum_hessian":[5.488459E0,3.910096E0,1.5783631E0,1.0075567E0,2.9025393E0,1.0573462E0,1.8451929E0],"tree_param":{"num_deleted":"0","num_feature":"28","num_nodes":"7","size_leaf_vector":"1"}},{"base_weights":[1.106592E-2,-5.812959E-2,1.02310084E-1,-3.736152E-2,2.2704576E-1,-4.749306E-3,9.779185E-2],"categories":[],"categories_nodes":[],"categories_segments":[],"categories_sizes":[],"default_left":[0,0,0,0,0,0,0],"id":36,"left_children":[1,-1,3,-1,5,-1,-1],"loss_changes":[1.3892967E-1,0E0,1.7154717E-1,0E0,9.216608E-2,0E0,0E0],"parents":[2147483647,0,0,2,2,4,4],"right_children":[2,-1,4,-1,6,-1,-1],"split_conditions":[1.6576858E-2,-5.812959E-2,3.7463002E-3,-3.736152E-2,5.20377E-4,-4.749306E-3,9.779185E-2],"split_indices":[18,0,11,0,14,0,0],"split_type":[0,0,0,0,0,0,0],"sum_hessian":[5.372805E0,1.3095177E0,4.0632873E0,1.4421417E0,2.6211457E0,1.0017393E0,1.6194065E0],"tree_param":{"num_deleted":"0","num_feature":"28","num_nodes":"7","size_leaf_vector":"1"}},{"base_weights":[7.814594E-3,-7.299646E-2,5.5904213E-2,7.9233326E-2,-7.409534E-2,-5.060131E-2,1.001498E-1],"categories":[],"categories_nodes":[],"categories_segments":[],"categories_sizes":[],"default_left":[0,0,0,0,0,0,0],"id":37,"left_children":[1,3,-1,5,-1,-1,-1],"loss_changes":[1.0423539E-1,1.5314059E-1,0E0,2.7385873E-1,0E0,0E0,0E0],"parents":[2147483647,0,0,1,1,3,3],"right_children":[2,4,-1,6,-1,-1,-1],"split_conditions":[2.259515E-3,0E0,5.5904213E-2,2.259515E-3,-7.409534E-2,-5.060131E-2,1.001498E-1],"split_indices":[4,20,0,13,0,0,0],"split_type":[0,0,0,0,0,0,0],"sum_hessian":[5.281975E0,4.043057E0,1.2389175E0,2.4468257E0,1.5962312E0,1.4107131E0,1.0361128E0],"tree_param":{"num_deleted":"0","num_feature":"28","num_nodes":"7","size_leaf_vector":"1"}},{"base_weights":[1.0771893E-2,9.627249E-2,-4.610933E-2,-2.9337533E-2,6.699289E-2,3.5702765E-2,-5.1229842E-2],"categories":[],"categories_nodes":[],"categories_segments":[],"categories_sizes":[],"default_left":[0,0,0,0,0,0,0],"id":38,"left_children":[1,3,-1,5,-1,-1,-1],"loss_changes":[1.0152637E-1,8.111648E-2,0E0,8.816303E-2,0E0,0E0,0E0],"parents":[2147483647,0,0,1,1,3,3],"right_children":[2,4,-1,6,-1,-1,-1],"split_conditions":[-6.875E-1,5.20377E-4,-4.610933E-2,2.7949598E-1,6.699289E-2,3.5702765E-2,-5.1229842E-2],"split_indices":[21,10,0,26,0,0,0],"split_type":[0,0,0,0,0,0,0],"sum_hessian":[5.167539E0,3.6728394E0,1.4947E0,2.2334964E0,1.4393429E0,1.167455E0,1.0660416E0],"tree_param":{"num_deleted":"0","num_feature":"28","num_nodes":"7","size_leaf_vector":"1"}},{"base_weights":[8.571645E-3,-1.0762725E-1,1.3516629E-1,-9.173834E-2,4.0660568E-2,9.6394494E-2,-3.2366626E-2],"categories":[],"categories_nodes":[],"categories_segments":[],"categories_sizes":[],"default_left":[0,0,0,0,0,0,0],"id":39,"left_children":[1,3,5,-1,-1,-1,-1],"loss_changes":[1.0430814E-1,2.215837E-1,1.8685137E-1,0E0,0E0,0E0,0E0],"parents":[2147483647,0,0,1,1,2,2],"right_children":[2,4,6,-1,-1,-1,-1],"split_conditions":[5.449489E-3,5.542537E-3,9.7661495E-1,-9.173834E-2,4.0660568E-2,9.6394494E-2,-3.2366626E-2],"split_indices":[1,16,11,0,0,0,0],"split_type":[0,0,0,0,0,0,0],"sum_hessian":[5.101944E0,2.7383192E0,2.3636248E0,1.3668339E0,1.3714851E0,1.1561667E0,1.2074581E0],"tree_param":{"num_deleted":"0","num_feature":"28","num_nodes":"7","size_leaf_vector":"1"}},{"base_weights":[8.251435E-3,4.8858598E-2,-8.6990364E-2,-2.2375768E-1,5.037603E-2,1.8732006E-2,-1.2554625E-1],"categories":[],"categories_nodes":[],"categories_segments":[],"categories_sizes":[],"default_left":[0,0,0,0,0,0,0],"id":40,"left_children":[1,-1,3,5,-1,-1,-1],"loss_changes":[1.025293E-1,0E0,1.8975505E-1,2.0834844E-1,0E0,0E0,0E0],"parents":[2147483647,0,0,2,2,3,3],"right_children":[2,-1,4,6,-1,-1,-1],"split_conditions":[-8.899225E-1,4.8858598E-2,1.6244111E0,-4.5819017E-3,5.037603E-2,1.8732006E-2,-1.2554625E-1],"split_indices":[25,0,26,26,0,0,0],"split_type":[0,0,0,0,0,0,0],"sum_hessian":[5.000649E0,1.6355686E0,3.3650806E0,2.2695875E0,1.095493E0,1.1940389E0,1.0755488E0],"tree_param":{"num_deleted":"0","num_feature":"28","num_nodes":"7","size_leaf_vector":"1"}},{"base_weights":[3.7805769E-3,-1.240907E-1,1.0765489E-1,-6.931897E-2,1.2485833E-2,6.8188414E-2,-1.4459866E-2],"categories":[],"categories_nodes":[],"categories_segments":[],"categories_sizes":[],"default_left":[0,0,0,0,0,0,0],"id":41,"left_children":[1,3,5,-1,-1,-1,-1],"loss_changes":[9.1476545E-2,6.458025E-2,8.144948E-2,0E0,0E0,0E0,0E0],"parents":[2147483647,0,0,1,1,2,2],"right_children":[2,4,6,-1,-1,-1,-1],"split_conditions":[3.7463002E-3,1.9668417E-2,1E0,-6.931897E-2,1.2485833E-2,6.8188414E-2,-1.4459866E-2],"split_indices":[3,9,9,0,0,0,0],"split_type":[0,0,0,0,0,0,0],"sum_hessian":[4.881222E0,2.1006534E0,2.7805684E0,1.0369068E0,1.0637467E0,1.3137251E0,1.4668434E0],"tree_param":{"num_deleted":"0","num_feature":"28","num_nodes":"7","size_leaf_vector":"1"}},{"base_weights":[2.1637992E-3,4.3301973E-2,-8.910003E-2,-5.8851507E-2,2.1910958E-2],"categories":[],"categories_nodes":[],"categories_segments":[],"categories_sizes":[],"default_left":[0,0,0,0,0],"id":42,"left_children":[1,-1,3,-1,-1],"loss_changes":[8.8574834E-2,0E0,8.6758055E-2,0E0,0E0],"parents":[2147483647,0,0,2,2],"right_children":[2,-1,4,-1,-1],"split_conditions":[1E0,4.3301973E-2,8.866237E-1,-5.8851507E-2,2.1910958E-2],"split_indices":[6,0,26,0,0],"split_type":[0,0,0,0,0],"sum_hessian":[4.8351464E0,1.6629456E0,3.1722007E0,1.7841007E0,1.3881E0],"tree_param":{"num_deleted":"0","num_feature":"28","num_nodes":"5","size_leaf_vector":"1"}},{"base_weights":[2.5045648E-3,-4.7867805E-2,7.8237385E-2,-2.162932E-2,6.343435E-2],"categories":[],"categories_nodes":[],"categories_segments":[],"categories_sizes":[],"default_left":[0,0,0,0,0],"id":43,"left_children":[1,-1,3,-1,-1],"loss_changes":[8.338428E-2,0E0,1.0752468E-1,0E0,0E0],"parents":[2147483647,0,0,2,2],"right_children":[2,-1,4,-1,-1],"split_conditions":[1.6576858E-2,-4.7867805E-2,5.449489E-3,-2.162932E-2,6.343435E-2],"split_indices":[18,0,1,0,0],"split_type":[0,0,0,0,0],"sum_hessian":[4.7767105E0,1.1687598E0,3.6079507E0,1.9105551E0,1.6973957E0],"tree_param":{"num_deleted":"0","num_feature":"28","num_nodes":"5","size_leaf_vector":"1"}},{"base_weights":[7.526075E-4,4.3563858E-2,-8.798929E-2,4.3502517E-2,-2.0763575E-1,-1.311485E-1,3.494974E-2],"categories":[],"categories_nodes":[],"categories_segments":[],"categories_sizes":[],"default_left":[0,0,0,0,0,0,0],"id":44,"left_children":[1,-1,3,-1,5,-1,-1],"loss_changes":[8.635391E-2,0E0,1.4658089E-1,0E0,2.8689387E-1,0E0,0E0],"parents":[2147483647,0,0,2,2,4,4],"right_children":[2,-1,4,-1,6,-1,-1],"split_conditions":[-8.899225E-1,4.3563858E-2,-6.984127E-1,4.3502517E-2,1.0745761E0,-1.311485E-1,3.494974E-2],"split_indices":[25,0,23,0,26,0,0],"split_type":[0,0,0,0,0,0,0],"sum_hessian":[4.7393584E0,1.5613437E0,3.1780148E0,1.0063298E0,2.171685E0,1.0672457E0,1.1044394E0],"tree_param":{"num_deleted":"0","num_feature":"28","num_nodes":"7","size_leaf_vector":"1"}},{"base_weights":[-2.2154143E-3,-7.6478936E-2,4.86091E-2,6.6619E-2,-6.889449E-2,-1.809279E-2,4.6545282E-2],"categories":[],"categories_nodes":[],"categories_segments":[],"categories_sizes":[],"default_left":[0,0,0,0,0,0,0],"id":45,"left_children":[1,3,-1,5,-1,-1,-1],"loss_changes":[8.08288E-2,1.148756E-1,0E0,4.4461057E-2,0E0,0E0,0E0],"parents":[2147483647,0,0,1,1,3,3],"right_children":[2,4,-1,6,-1,-1,-1],"split_conditions":[2.259515E-3,0E0,4.86091E-2,-5.704817E-1,-6.889449E-2,-1.809279E-2,4.6545282E-2],"split_indices":[4,20,0,22,0,0,0],"split_type":[0,0,0,0,0,0,0],"sum_hessian":[4.6107464E0,3.5431004E0,1.067646E0,2.1239088E0,1.4191915E0,1.0036951E0,1.1202137E0],"tree_param":{"num_deleted":"0","num_feature":"28","num_nodes":"7","size_leaf_vector":"1"}},{"base_weights":[-2.1701722E-4,7.3929824E-2,-4.1816838E-2,-2.580286E-2,5.2412678E-2,-3.3779558E-2,2.2102244E-2],"categories":[],"categories_nodes":[],"categories_segments":[],"categories_sizes":[],"default_left":[0,0,0,0,0,0,0],"id":46,"left_children":[1,3,-1,5,-1,-1,-1],"loss_changes":[6.7653425E-2,4.7517963E-2,0E0,3.4388706E-2,0E0,0E0,0E0],"parents":[2147483647,0,0,1,1,3,3],"right_children":[2,4,-1,6,-1,-1,-1],"split_conditions":[-6.875E-1,2.259515E-3,-4.1816838E-2,8.641676E-1,5.2412678E-2,-3.3779558E-2,2.2102244E-2],"split_indices":[21,13,0,9,0,0,0],"split_type":[0,0,0,0,0,0,0],"sum_hessian":[4.5574465E0,3.2791858E0,1.2782607E0,2.0220737E0,1.257112E0,1.0094252E0,1.0126486E0],"tree_param":{"num_deleted":"0","num_feature":"28","num_nodes":"7","size_leaf_vector":"1"}},{"base_weights":[-3.4119017E-4,-3.334959E-2,9.183972E-2,6.403372E-2,-1.737102E-2],"categories":[],"categories_nodes":[],"categories_segments":[],"categories_sizes":[],"default_left":[0,0,0,0,0],"id":47,"left_children":[1,-1,3,-1,-1],"loss_changes":[6.664783E-2,0E0,7.7250645E-2,0E0,0E0],"parents":[2147483647,0,0,2,2],"right_children":[2,-1,4,-1,-1],"split_conditions":[3.7463002E-3,-3.334959E-2,1E0,6.403372E-2,-1.737102E-2],"split_indices":[3,0,9,0,0],"split_type":[0,0,0,0,0],"sum_hessian":[4.524586E0,1.9610163E0,2.56357E0,1.1799351E0,1.3836348E0],"tree_param":{"num_deleted":"0","num_feature":"28","num_nodes":"5","size_leaf_vector":"1"}},{"base_weights":[2.2783827E-3,-4.27205E-2,7.12471E-2,-5.5048548E-2,6.66058E-2,3.651004E-2,-6.327361E-2],"categories":[],"categories_nodes":[],"categories_segments":[],"categories_sizes":[],"default_left":[0,0,0,0,0,0,0],"id":48,"left_children":[1,-1,3,5,-1,-1,-1],"loss_changes":[6.4926185E-2,0E0,9.570547E-2,1.1346777E-1,0E0,0E0,0E0],"parents":[2147483647,0,0,2,2,3,3],"right_children":[2,-1,4,6,-1,-1,-1],"split_conditions":[1.6576858E-2,-4.27205E-2,-9.324251E-1,3.2115582E-2,6.66058E-2,3.651004E-2,-6.327361E-2],"split_indices":[18,0,24,19,0,0,0],"split_type":[0,0,0,0,0,0,0],"sum_hessian":[4.489907E0,1.105694E0,3.384213E0,2.1870778E0,1.1971352E0,1.1275862E0,1.0594915E0],"tree_param":{"num_deleted":"0","num_feature":"28","num_nodes":"7","size_leaf_vector":"1"}},{"base_weights":[1.048186E-3,7.9619355E-2,-4.3694336E-2,5.577564E-2,-2.1872308E-2,5.444497E-2,-6.36828E-2],"categories":[],"categories_nodes":[],"categories_segments":[],"categories_sizes":[],"default_left":[0,0,0,0,0,0,0],"id":49,"left_children":[1,3,-1,-1,5,-1,-1],"loss_changes":[7.438221E-2,4.931214E-2,0E0,0E0,1.562398E-1,0E0,0E0],"parents":[2147483647,0,0,1,1,4,4],"right_children":[2,4,-1,-1,6,-1,-1],"split_conditions":[-6.875E-1,-1.0787466E0,-4.3694336E-2,5.577564E-2,3.024055E-1,5.444497E-2,-6.36828E-2],"split_indices":[21,24,0,0,26,0,0],"split_type":[0,0,0,0,0,0,0],"sum_hessian":[4.4472857E0,3.1938767E0,1.2534089E0,1.1536814E0,2.0401952E0,1.0091984E0,1.0309969E0],"tree_param":{"num_deleted":"0","num_feature":"28","num_nodes":"7","size_leaf_vector":"1"}},{"base_weights":[1.241719E-3,4.099156E-2,-7.041615E-2,-6.252654E-2,2.0196026E-2],"categories":[],"categories_nodes":[],"categories_segments":[],"categories_sizes":[],"default_left":[0,0,0,0,0],"id":50,"left_children":[1,-1,3,-1,-1],"loss_changes":[6.1895814E-2,0E0,9.354545E-2,0E0,0E0],"parents":[2147483647,0,0,2,2],"right_children":[2,-1,4,-1,-1],"split_conditions":[5E0,4.099156E-2,3.7463002E-3,-6.252654E-2,2.0196026E-2],"split_indices":[0,0,3,0,0],"split_type":[0,0,0,0,0],"sum_hessian":[4.3878508E0,1.2047224E0,3.1831284E0,1.3336625E0,1.8494658E0],"tree_param":{"num_deleted":"0","num_feature":"28","num_nodes":"5","size_leaf_vector":"1"}},{"base_weights":[5.242566E-4,4.020378E-2,-8.702226E-2,-5.5510867E-2,1.7640984E-2],"categories":[],"categories_nodes":[],"categories_segments":[],"categories_sizes":[],"default_left":[0,0,0,0,0],"id":51,"left_children":[1,-1,3,-1,-1],"loss_changes":[7.430076E-2,0E0,6.581275E-2,0E0,0E0],"parents":[2147483647,0,0,2,2],"right_children":[2,-1,4,-1,-1],"split_conditions":[1E0,4.020378E-2,-4.9973983E-1,-5.5510867E-2,1.7640984E-2],"split_indices":[6,0,20,0,0],"split_type":[0,0,0,0,0],"sum_hessian":[4.359946E0,1.5166477E0,2.843298E0,1.5395981E0,1.3037E0],"tree_param":{"num_deleted":"0","num_feature":"28","num_nodes":"5","size_leaf_vector":"1"}},{"base_weights":[7.254124E-4,3.916292E-2,-8.094361E-2,-5.5108998E-2,3.0981531E-2],"categories":[],"categories_nodes":[],"categories_segments":[],"categories_sizes":[],"default_left":[0,0,0,0,0],"id":52,"left_children":[1,-1,3,-1,-1],"loss_changes":[6.695938E-2,0E0,9.245682E-2,0E0,0E0],"parents":[2147483647,0,0,2,2],"right_children":[2,-1,4,-1,-1],"split_conditions":[-8.899225E-1,3.916292E-2,1.4173076E0,-5.5108998E-2,3.0981531E-2],"split_indices":[25,0,26,0,0],"split_type":[0,0,0,0,0],"sum_hessian":[4.319028E0,1.4367657E0,2.8822622E0,1.8520358E0,1.0302266E0],"tree_param":{"num_deleted":"0","num_feature":"28","num_nodes":"5","size_leaf_vector":"1"}},{"base_weights":[3.249173E-3,4.3379933E-2,-6.588152E-2,-7.653154E-2,3.510844E-2],"categories":[],"categories_nodes":[],"categories_segments":[],"categories_sizes":[],"default_left":[0,0,0,0,0],"id":53,"left_children":[1,-1,3,-1,-1],"loss_changes":[6.097536E-2,0E0,1.7601006E-1,0E0,0E0],"parents":[2147483647,0,0,2,2],"right_children":[2,-1,4,-1,-1],"split_conditions":[-4.0816328E-1,4.3379933E-2,5.449489E-3,-7.653154E-2,3.510844E-2],"split_indices":[19,0,1,0,0],"split_type":[0,0,0,0,0],"sum_hessian":[4.2651124E0,1.0422832E0,3.2228289E0,1.3900696E0,1.8327594E0],"tree_param":{"num_deleted":"0","num_feature":"28","num_nodes":"5","size_leaf_vector":"1"}},{"base_weights":[2.480308E-3,7.6198965E-2,-4.0131874E-2,5.0579067E-2,-6.697547E-3],"categories":[],"categories_nodes":[],"categories_segments":[],"categories_sizes":[],"default_left":[0,0,0,0,0],"id":54,"left_children":[1,3,-1,-1,-1],"loss_changes":[6.2668815E-2,4.0425617E-2,0E0,0E0,0E0],"parents":[2147483647,0,0,1,1],"right_children":[2,4,-1,-1,-1],"split_conditions":[-6.875E-1,-8.899225E-1,-4.0131874E-2,5.0579067E-2,-6.697547E-3],"split_indices":[21,25,0,0,0],"split_type":[0,0,0,0,0],"sum_hessian":[4.224347E0,3.0272396E0,1.1971077E0,1.195165E0,1.8320744E0],"tree_param":{"num_deleted":"0","num_feature":"28","num_nodes":"5","size_leaf_vector":"1"}},{"base_weights":[2.513721E-3,8.4606074E-2,-3.053342E-2,5.913006E-2,-2.0129828E-2],"categories":[],"categories_nodes":[],"categories_segments":[],"categories_sizes":[],"default_left":[0,0,0,0,0],"id":55,"left_children":[1,3,-1,-1,-1],"loss_changes":[5.306601E-2,7.212826E-2,0E0,0E0,0E0],"parents":[2147483647,0,0,1,1],"right_children":[2,4,-1,-1,-1],"split_conditions":[1E0,0E0,-3.053342E-2,5.913006E-2,-2.0129828E-2],"split_indices":[15,20,0,0,0],"split_type":[0,0,0,0,0],"sum_hessian":[4.1923923E0,2.4514844E0,1.740908E0,1.2358419E0,1.2156425E0],"tree_param":{"num_deleted":"0","num_feature":"28","num_nodes":"5","size_leaf_vector":"1"}},{"base_weights":[3.47563E-3,-9.044929E-2,9.448258E-2,3.3945154E-2,-7.356326E-2,-2.7216278E-2,6.98746E-2],"categories":[],"categories_nodes":[],"categories_segments":[],"categories_sizes":[],"default_left":[0,0,0,0,0,0,0],"id":56,"left_children":[1,3,5,-1,-1,-1,-1],"loss_changes":[5.270341E-2,1.2394778E-1,1.00937515E-1,0E0,0E0,0E0,0E0],"parents":[2147483647,0,0,1,1,2,2],"right_children":[2,4,6,-1,-1,-1,-1],"split_conditions":[1.9201465E-1,1.3745704E-1,5.20377E-4,3.3945154E-2,-7.356326E-2,-2.7216278E-2,6.98746E-2],"split_indices":[23,26,14,0,0,0,0],"split_type":[0,0,0,0,0,0,0],"sum_hessian":[4.1659403E0,2.0531192E0,2.1128209E0,1.0027728E0,1.0503465E0,1.0511659E0,1.0616549E0],"tree_param":{"num_deleted":"0","num_feature":"28","num_nodes":"7","size_leaf_vector":"1"}},{"base_weights":[3.046258E-3,-7.0867375E-2,3.297501E-2,-7.700268E-2,3.0137653E-2],"categories":[],"categories_nodes":[],"categories_segments":[],"categories_sizes":[],"default_left":[0,0,0,0,0],"id":57,"left_children":[1,3,-1,-1,-1],"loss_changes":[4.8128E-2,1.4124036E-1,0E0,0E0,0E0],"parents":[2147483647,0,0,1,1],"right_children":[2,4,-1,-1,-1],"split_conditions":[1.0315188E0,1.9668417E-2,3.297501E-2,-7.700268E-2,3.0137653E-2],"split_indices":[26,9,0,0,0],"split_type":[0,0,0,0,0],"sum_hessian":[4.1066666E0,2.626804E0,1.4798627E0,1.0211589E0,1.6056452E0],"tree_param":{"num_deleted":"0","num_feature":"28","num_nodes":"5","size_leaf_vector":"1"}},{"base_weights":[-7.92056E-4,3.3561688E-2,-7.5599335E-2,-6.0495332E-2,2.0533558E-2],"categories":[],"categories_nodes":[],"categories_segments":[],"categories_sizes":[],"default_left":[0,0,0,0,0],"id":58,"left_children":[1,-1,3,-1,-1],"loss_changes":[5.118294E-2,0E0,7.995343E-2,0E0,0E0],"parents":[2147483647,0,0,2,2],"right_children":[2,-1,4,-1,-1],"split_conditions":[-1.0348774E0,3.3561688E-2,6.7680767E-3,-6.0495332E-2,2.0533558E-2],"split_indices":[24,0,19,0,0],"split_type":[0,0,0,0,0],"sum_hessian":[4.0693994E0,1.4261129E0,2.6432865E0,1.1964043E0,1.446882E0],"tree_param":{"num_deleted":"0","num_feature":"28","num_nodes":"5","size_leaf_vector":"1"}},{"base_weights":[-1.9643803E-3,6.2292498E-2,-3.558645E-2,-1.037323E-2,4.7835786E-2],"categories":[],"categories_nodes":[],"categories_segments":[],"categories_sizes":[],"default_left":[0,0,0,0,0],"id":59,"left_children":[1,3,-1,-1,-1],"loss_changes":[4.510248E-2,4.221832E-2,0E0,0E0,0E0],"parents":[2147483647,0,0,1,1],"right_children":[2,4,-1,-1,-1],"split_conditions":[-6.875E-1,5.20377E-4,-3.558645E-2,-1.037323E-2,4.7835786E-2],"split_indices":[21,10,0,0,0],"split_type":[0,0,0,0,0],"sum_hessian":[4.0311017E0,2.8998382E0,1.1312634E0,1.7746288E0,1.1252096E0],"tree_param":{"num_deleted":"0","num_feature":"28","num_nodes":"5","size_leaf_vector":"1"}},{"base_weights":[-9.6148223E-4,3.2986805E-2,-6.014166E-2,-5.6957733E-2,2.0045351E-2],"categories":[],"categories_nodes":[],"categories_segments":[],"categories_sizes":[],"default_left":[0,0,0,0,0],"id":60,"left_children":[1,-1,3,-1,-1],"loss_changes":[3.9447043E-2,0E0,7.704921E-2,0E0,0E0],"parents":[2147483647,0,0,2,2],"right_children":[2,-1,4,-1,-1],"split_conditions":[5E0,3.2986805E-2,3.7463002E-3,-5.6957733E-2,2.0045351E-2],"split_indices":[0,0,3,0,0],"split_type":[0,0,0,0,0],"sum_hessian":[4.0020595E0,1.093882E0,2.9081776E0,1.1934112E0,1.7147664E0],"tree_param":{"num_deleted":"0","num_feature":"28","num_nodes":"5","size_leaf_vector":"1"}},{"base_weights":[-1.5500268E-3,3.1268954E-2,-7.052578E-2,-4.824604E-2,1.8183786E-2],"categories":[],"categories_nodes":[],"categories_segments":[],"categories_sizes":[],"default_left":[0,0,0,0,0],"id":61,"left_children":[1,-1,3,-1,-1],"loss_changes":[4.3690156E-2,0E0,5.250772E-2,0E0,0E0],"parents":[2147483647,0,0,2,2],"right_children":[2,-1,4,-1,-1],"split_conditions":[1E0,3.1268954E-2,-4.9973983E-1,-4.824604E-2,1.8183786E-2],"split_indices":[6,0,20,0,0],"split_type":[0,0,0,0,0],"sum_hessian":[3.9805431E0,1.3693801E0,2.6111631E0,1.4123566E0,1.1988065E0],"tree_param":{"num_deleted":"0","num_feature":"28","num_nodes":"5","size_leaf_vector":"1"}},{"base_weights":[-9.1609167E-4,-2.4680337E-2,2.3967288E-2],"categories":[],"categories_nodes":[],"categories_segments":[],"categories_sizes":[],"default_left":[0,0,0],"id":62,"left_children":[1,-1,-1],"loss_changes":[3.9126523E-2,0E0,0E0],"parents":[2147483647,0,0],"right_children":[2,-1,-1],"split_conditions":[1.9201465E-1,-2.4680337E-2,2.3967288E-2],"split_indices":[23,0,0],"split_type":[0,0,0],"sum_hessian":[3.9521005E0,1.9604052E0,1.9916954E0],"tree_param":{"num_deleted":"0","num_feature":"28","num_nodes":"3","size_leaf_vector":"1"}},{"base_weights":[-7.963732E-4,5.861734E-2,-3.244828E-2,3.713239E-2,-1.5004281E-2],"categories":[],"categories_nodes":[],"categories_segments":[],"categories_sizes":[],"default_left":[0,0,0,0,0],"id":63,"left_children":[1,3,-1,-1,-1],"loss_changes":[3.784686E-2,3.328681E-2,0E0,0E0,0E0],"parents":[2147483647,0,0,1,1],"right_children":[2,4,-1,-1,-1],"split_conditions":[-6.875E-1,4.8979592E-1,-3.244828E-2,3.713239E-2,-1.5004281E-2],"split_indices":[21,19,0,0,0],"split_type":[0,0,0,0,0],"sum_hessian":[3.9391932E0,2.828168E0,1.1110253E0,1.6806909E0,1.147477E0],"tree_param":{"num_deleted":"0","num_feature":"28","num_nodes":"5","size_leaf_vector":"1"}},{"base_weights":[-2.6591672E-3,-6.8654984E-2,2.814022E-2,-5.1846176E-2,2.7664555E-2],"categories":[],"categories_nodes":[],"categories_segments":[],"categories_sizes":[],"default_left":[0,0,0,0,0],"id":64,"left_children":[1,3,-1,-1,-1],"loss_changes":[3.778559E-2,7.4604265E-2,0E0,0E0,0E0],"parents":[2147483647,0,0,1,1],"right_children":[2,4,-1,-1,-1],"split_conditions":[1.0315188E0,5.542537E-3,2.814022E-2,-5.1846176E-2,2.7664555E-2],"split_indices":[26,16,0,0,0],"split_type":[0,0,0,0,0],"sum_hessian":[3.9239628E0,2.5010507E0,1.4229121E0,1.4729862E0,1.0280645E0],"tree_param":{"num_deleted":"0","num_feature":"28","num_nodes":"5","size_leaf_vector":"1"}},{"base_weights":[-1.155654E-3,3.1558335E-2,-5.8800448E-2,-5.182952E-2,1.663388E-2],"categories":[],"categories_nodes":[],"categories_segments":[],"categories_sizes":[],"default_left":[0,0,0,0,0],"id":65,"left_children":[1,-1,3,-1,-1],"loss_changes":[3.619751E-2,0E0,5.926598E-2,0E0,0E0],"parents":[2147483647,0,0,2,2],"right_children":[2,-1,4,-1,-1],"split_conditions":[5E0,3.1558335E-2,3.7463002E-3,-5.182952E-2,1.663388E-2],"split_indices":[0,0,3,0,0],"split_type":[0,0,0,0,0],"sum_hessian":[3.895504E0,1.0793377E0,2.8161664E0,1.1534019E0,1.6627644E0],"tree_param":{"num_deleted":"0","num_feature":"28","num_nodes":"5","size_leaf_vector":"1"}},{"base_weights":[-1.6251311E-3,3.3213783E-2,-6.0866047E-2,-6.513376E-2,4.3122802E-2],"categories":[],"categories_nodes":[],"categories_segments":[],"categories_sizes":[],"default_left":[0,0,0,0,0],"id":66,"left_children":[1,-1,3,-1,-1],"loss_changes":[3.920064E-2,0E0,1.539366E-1,0E0,0E0],"parents":[2147483647,0,0,2,2],"right_children":[2,-1,4,-1,-1],"split_conditions":[-5.9956473E-1,3.3213783E-2,1.9201465E-1,-6.513376E-2,4.3122802E-2],"split_indices":[22,0,23,0,0],"split_type":[0,0,0,0,0],"sum_hessian":[3.8778431E0,1.0389129E0,2.8389301E0,1.575053E0,1.2638772E0],"tree_param":{"num_deleted":"0","num_feature":"28","num_nodes":"5","size_leaf_vector":"1"}},{"base_weights":[1.0057423E-3,7.376626E-2,-2.6701832E-2,5.6373905E-2,-2.2868719E-2],"categories":[],"categories_nodes":[],"categories_segments":[],"categories_sizes":[],"default_left":[0,0,0,0,0],"id":67,"left_children":[1,3,-1,-1,-1],"loss_changes":[3.8202345E-2,6.942246E-2,0E0,0E0,0E0],"parents":[2147483647,0,0,1,1],"right_children":[2,4,-1,-1,-1],"split_conditions":[1E0,0E0,-2.6701832E-2,5.6373905E-2,-2.2868719E-2],"split_indices":[15,20,0,0,0],"split_type":[0,0,0,0,0],"sum_hessian":[3.8305407E0,2.2180645E0,1.6124761E0,1.1159964E0,1.1020682E0],"tree_param":{"num_deleted":"0","num_feature":"28","num_nodes":"5","size_leaf_vector":"1"}},{"base_weights":[2.1804697E-3,5.836713E-2,-3.0300695E-2,3.388734E-2,-1.1225281E-2],"categories":[],"categories_nodes":[],"categories_segments":[],"categories_sizes":[],"default_left":[0,0,0,0,0],"id":68,"left_children":[1,3,-1,-1,-1],"loss_changes":[3.3767212E-2,2.3816403E-2,0E0,0E0,0E0],"parents":[2147483647,0,0,1,1],"right_children":[2,4,-1,-1,-1],"split_conditions":[-6.875E-1,4.8979592E-1,-3.0300695E-2,3.388734E-2,-1.1225281E-2],"split_indices":[21,19,0,0,0],"split_type":[0,0,0,0,0],"sum_hessian":[3.8075929E0,2.746409E0,1.0611838E0,1.6351808E0,1.1112282E0],"tree_param":{"num_deleted":"0","num_feature":"28","num_nodes":"5","size_leaf_vector":"1"}},{"base_weights":[-6.738244E-5,-2.3304183E-2,6.993893E-2,5.3704333E-2,-2.278633E-2],"categories":[],"categories_nodes":[],"categories_segments":[],"categories_sizes":[],"default_left":[0,0,0,0,0],"id":69,"left_children":[1,-1,3,-1,-1],"loss_changes":[3.148597E-2,0E0,6.208904E-2,0E0,0E0],"parents":[2147483647,0,0,2,2],"right_children":[2,-1,4,-1,-1],"split_conditions":[5.315006E-1,-2.3304183E-2,-9.716621E-1,5.3704333E-2,-2.278633E-2],"split_indices":[26,0,24,0,0],"split_type":[0,0,0,0,0],"sum_hessian":[3.7949715E0,1.7477202E0,2.0472512E0,1.0415362E0,1.005715E0],"tree_param":{"num_deleted":"0","num_feature":"28","num_nodes":"5","size_leaf_vector":"1"}},{"base_weights":[1.6250883E-3,-6.272253E-2,3.0665018E-2,2.1474658E-2,-5.1990874E-2],"categories":[],"categories_nodes":[],"categories_segments":[],"categories_sizes":[],"default_left":[0,0,0,0,0],"id":70,"left_children":[1,3,-1,-1,-1],"loss_changes":[3.7262764E-2,6.477988E-2,0E0,0E0,0E0],"parents":[2147483647,0,0,1,1],"right_children":[2,4,-1,-1,-1],"split_conditions":[-9.2974436E-1,-1.0348774E0,3.0665018E-2,2.1474658E-2,-5.1990874E-2],"split_indices":[24,24,0,0,0],"split_type":[0,0,0,0,0],"sum_hessian":[3.7663028E0,2.5265524E0,1.2397504E0,1.3001416E0,1.2264109E0],"tree_param":{"num_deleted":"0","num_feature":"28","num_nodes":"5","size_leaf_vector":"1"}},{"base_weights":[1.0833184E-3,7.6251514E-2,-2.742959E-2,5.0306004E-2,-1.6263368E-2],"categories":[],"categories_nodes":[],"categories_segments":[],"categories_sizes":[],"default_left":[0,0,0,0,0],"id":71,"left_children":[1,3,-1,-1,-1],"loss_changes":[3.9956875E-2,4.6811983E-2,0E0,0E0,0E0],"parents":[2147483647,0,0,1,1],"right_children":[2,4,-1,-1,-1],"split_conditions":[1E0,0E0,-2.742959E-2,5.0306004E-2,-1.6263368E-2],"split_indices":[15,20,0,0,0],"split_type":[0,0,0,0,0],"sum_hessian":[3.7431788E0,2.1621988E0,1.5809801E0,1.1034915E0,1.0587072E0],"tree_param":{"num_deleted":"0","num_feature":"28","num_nodes":"5","size_leaf_vector":"1"}},{"base_weights":[2.1992363E-3,-2.1136902E-2,2.4241216E-2],"categories":[],"categories_nodes":[],"categories_segments":[],"categories_sizes":[],"default_left":[0,0,0],"id":72,"left_children":[1,-1,-1],"loss_changes":[3.2677006E-2,0E0,0E0],"parents":[2147483647,0,0],"right_children":[2,-1,-1],"split_conditions":[5.449489E-3,-2.1136902E-2,2.4241216E-2],"split_indices":[1,0,0],"split_type":[0,0,0],"sum_hessian":[3.7248259E0,1.9895343E0,1.7352916E0],"tree_param":{"num_deleted":"0","num_feature":"28","num_nodes":"3","size_leaf_vector":"1"}},{"base_weights":[2.1937098E-3,5.730609E-2,-2.9262135E-2,3.7284147E-2,-5.535043E-3],"categories":[],"categories_nodes":[],"categories_segments":[],"categories_sizes":[],"default_left":[0,0,0,0,0],"id":73,"left_children":[1,3,-1,-1,-1],"loss_changes":[3.1527776E-2,2.0910105E-2,0E0,0E0,0E0],"parents":[2147483647,0,0,1,1],"right_children":[2,4,-1,-1,-1],"split_conditions":[-6.875E-1,1E0,-2.9262135E-2,3.7284147E-2,-5.535043E-3],"split_indices":[21,6,0,0,0],"split_type":[0,0,0,0,0],"sum_hessian":[3.7189496E0,2.669316E0,1.0496334E0,1.0768051E0,1.5925109E0],"tree_param":{"num_deleted":"0","num_feature":"28","num_nodes":"5","size_leaf_vector":"1"}},{"base_weights":[2.0890697E-3,-5.4779314E-2,2.70012E-2,2.2364482E-2,-4.924051E-2],"categories":[],"categories_nodes":[],"categories_segments":[],"categories_sizes":[],"default_left":[0,0,0,0,0],"id":74,"left_children":[1,3,-1,-1,-1],"loss_changes":[2.8434975E-2,6.140125E-2,0E0,0E0,0E0],"parents":[2147483647,0,0,1,1],"right_children":[2,4,-1,-1,-1],"split_conditions":[-9.2974436E-1,-1.0348774E0,2.70012E-2,2.2364482E-2,-4.924051E-2],"split_indices":[24,24,0,0,0],"split_type":[0,0,0,0,0],"sum_hessian":[3.7013183E0,2.476368E0,1.2249503E0,1.2804097E0,1.1959581E0],"tree_param":{"num_deleted":"0","num_feature":"28","num_nodes":"5","size_leaf_vector":"1"}},{"base_weights":[1.416908E-3,6.817121E-2,-2.4110615E-2,4.7949415E-2,-1.8886087E-2],"categories":[],"categories_nodes":[],"categories_segments":[],"categories_sizes":[],"default_left":[0,0,0,0,0],"id":75,"left_children":[1,3,-1,-1,-1],"loss_changes":[3.1030884E-2,4.753688E-2,0E0,0E0,0E0],"parents":[2147483647,0,0,1,1],"right_children":[2,4,-1,-1,-1],"split_conditions":[1E0,9.962537E-1,-2.4110615E-2,4.7949415E-2,-1.8886087E-2],"split_indices":[15,1,0,0,0],"split_type":[0,0,0,0,0],"sum_hessian":[3.680256E0,2.1179924E0,1.5622635E0,1.1177362E0,1.0002563E0],"tree_param":{"num_deleted":"0","num_feature":"28","num_nodes":"5","size_leaf_vector":"1"}},{"base_weights":[2.0930902E-3,-1.960516E-2,2.2579703E-2],"categories":[],"categories_nodes":[],"categories_segments":[],"categories_sizes":[],"default_left":[0,0,0],"id":76,"left_children":[1,-1,-1],"loss_changes":[2.7928729E-2,0E0,0E0],"parents":[2147483647,0,0],"right_children":[2,-1,-1],"split_conditions":[5.449489E-3,-1.960516E-2,2.2579703E-2],"split_indices":[1,0,0],"split_type":[0,0,0],"sum_hessian":[3.6626067E0,1.961541E0,1.7010657E0],"tree_param":{"num_deleted":"0","num_feature":"28","num_nodes":"3","size_leaf_vector":"1"}},{"base_weights":[2.0998006E-3,5.55485E-2,-2.8056215E-2,-9.363225E-3,3.2813553E-2],"categories":[],"categories_nodes":[],"categories_segments":[],"categories_sizes":[],"default_left":[0,0,0,0,0],"id":77,"left_children":[1,3,-1,-1,-1],"loss_changes":[2.8998714E-2,2.0296521E-2,0E0,0E0,0E0],"parents":[2147483647,0,0,1,1],"right_children":[2,4,-1,-1,-1],"split_conditions":[-6.875E-1,5.542537E-3,-2.8056215E-2,-9.363225E-3,3.2813553E-2],"split_indices":[21,16,0,0,0],"split_type":[0,0,0,0,0],"sum_hessian":[3.6575515E0,2.6149528E0,1.0425985E0,1.1621243E0,1.4528286E0],"tree_param":{"num_deleted":"0","num_feature":"28","num_nodes":"5","size_leaf_vector":"1"}},{"base_weights":[4.8468303E-4,-2.5429495E-2,5.3263932E-2,-2.546835E-2,5.3999957E-2],"categories":[],"categories_nodes":[],"categories_segments":[],"categories_sizes":[],"default_left":[0,0,0,0,0],"id":78,"left_children":[1,-1,3,-1,-1],"loss_changes":[2.5410846E-2,0E0,7.625717E-2,0E0,0E0],"parents":[2147483647,0,0,2,2],"right_children":[2,-1,4,-1,-1],"split_conditions":[3.7463002E-3,-2.5429495E-2,5.20377E-4,-2.546835E-2,5.3999957E-2],"split_indices":[11,0,2,0,0],"split_type":[0,0,0,0,0],"sum_hessian":[3.6441455E0,1.1617098E0,2.4824357E0,1.3456504E0,1.1367853E0],"tree_param":{"num_deleted":"0","num_feature":"28","num_nodes":"5","size_leaf_vector":"1"}},{"base_weights":[1.06271E-3,-2.046052E-2,2.285881E-2],"categories":[],"categories_nodes":[],"categories_segments":[],"categories_sizes":[],"default_left":[0,0,0],"id":79,"left_children":[1,-1,-1],"loss_changes":[2.924486E-2,0E0,0E0],"parents":[2147483647,0,0],"right_children":[2,-1,-1],"split_conditions":[5.449489E-3,-2.046052E-2,2.285881E-2],"split_indices":[1,0,0],"split_type":[0,0,0],"sum_hessian":[3.621032E0,1.9321057E0,1.6889262E0],"tree_param":{"num_deleted":"0","num_feature":"28","num_nodes":"3","size_leaf_vector":"1"}},{"base_weights":[1.2580041E-3,-1.8829089E-2,2.072933E-2],"categories":[],"categories_nodes":[],"categories_segments":[],"categories_sizes":[],"default_left":[0,0,0],"id":80,"left_children":[1,-1,-1],"loss_changes":[2.4384286E-2,0E0,0E0],"parents":[2147483647,0,0],"right_children":[2,-1,-1],"split_conditions":[8.866237E-1,-1.8829089E-2,2.072933E-2],"split_indices":[26,0,0],"split_type":[0,0,0],"sum_hessian":[3.6158142E0,1.8987522E0,1.7170621E0],"tree_param":{"num_deleted":"0","num_feature":"28","num_nodes":"3","size_leaf_vector":"1"}},{"base_weights":[1.2902836E-3,-5.1196136E-2,2.4617601E-2,2.3415795E-2,-4.8236396E-2],"categories":[],"categories_nodes":[],"categories_segments":[],"categories_sizes":[],"default_left":[0,0,0,0,0],"id":81,"left_children":[1,3,-1,-1,-1],"loss_changes":[2.3731187E-2,6.0825534E-2,0E0,0E0,0E0],"parents":[2147483647,0,0,1,1],"right_children":[2,4,-1,-1,-1],"split_conditions":[-9.2974436E-1,-1.0348774E0,2.4617601E-2,2.3415795E-2,-4.8236396E-2],"split_indices":[24,24,0,0,0],"split_type":[0,0,0,0,0],"sum_hessian":[3.6069782E0,2.4081836E0,1.1987945E0,1.2370446E0,1.1711391E0],"tree_param":{"num_deleted":"0","num_feature":"28","num_nodes":"5","size_leaf_vector":"1"}},{"base_weights":[7.8916614E-4,5.5935893E-2,-2.8891519E-2,3.4217875E-2,-1.0742202E-2],"categories":[],"categories_nodes":[],"categories_segments":[],"categories_sizes":[],"default_left":[0,0,0,0,0],"id":82,"left_children":[1,3,-1,-1,-1],"loss_changes":[2.9948084E-2,2.3057414E-2,0E0,0E0,0E0],"parents":[2147483647,0,0,1,1],"right_children":[2,4,-1,-1,-1],"split_conditions":[-6.875E-1,5.9669495E0,-2.8891519E-2,3.4217875E-2,-1.0742202E-2],"split_indices":[21,0,0,0,0],"split_type":[0,0,0,0,0],"sum_hessian":[3.587077E0,2.5580685E0,1.0290084E0,1.4170513E0,1.1410171E0],"tree_param":{"num_deleted":"0","num_feature":"28","num_nodes":"5","size_leaf_vector":"1"}},{"base_weights":[-6.385849E-4,-2.250869E-2,6.1349582E-2,-4.4364524E-3,3.186761E-2],"categories":[],"categories_nodes":[],"categories_segments":[],"categories_sizes":[],"default_left":[0,0,0,0,0],"id":83,"left_children":[1,-1,3,-1,-1],"loss_changes":[2.5710586E-2,0E0,1.1981528E-2,0E0,0E0],"parents":[2147483647,0,0,2,2],"right_children":[2,-1,4,-1,-1],"split_conditions":[3.7463002E-3,-2.250869E-2,5.315006E-1,-4.4364524E-3,3.186761E-2],"split_indices":[3,0,26,0,0],"split_type":[0,0,0,0,0],"sum_hessian":[3.5773394E0,1.5303867E0,2.0469527E0,1.0077071E0,1.0392456E0],"tree_param":{"num_deleted":"0","num_feature":"28","num_nodes":"5","size_leaf_vector":"1"}},{"base_weights":[6.363422E-4,2.5522701E-2,-5.4197155E-2,-4.14551E-2,2.0213837E-2],"categories":[],"categories_nodes":[],"categories_segments":[],"categories_sizes":[],"default_left":[0,0,0,0,0],"id":84,"left_children":[1,-1,3,-1,-1],"loss_changes":[2.5755359E-2,0E0,4.3819293E-2,0E0,0E0],"parents":[2147483647,0,0,2,2],"right_children":[2,-1,4,-1,-1],"split_conditions":[1E0,2.5522701E-2,-4.9973983E-1,-4.14551E-2,2.0213837E-2],"split_indices":[6,0,20,0,0],"split_type":[0,0,0,0,0],"sum_hessian":[3.5667448E0,1.1871297E0,2.379615E0,1.3265923E0,1.0530226E0],"tree_param":{"num_deleted":"0","num_feature":"28","num_nodes":"5","size_leaf_vector":"1"}},{"base_weights":[1.3356966E-3,5.064748E-2,-2.5740502E-2,3.0022182E-2,-8.561577E-3],"categories":[],"categories_nodes":[],"categories_segments":[],"categories_sizes":[],"default_left":[0,0,0,0,0],"id":85,"left_children":[1,3,-1,-1,-1],"loss_changes":[2.3881206E-2,1.6680608E-2,0E0,0E0,0E0],"parents":[2147483647,0,0,1,1],"right_children":[2,4,-1,-1,-1],"split_conditions":[-6.875E-1,5.9669495E0,-2.5740502E-2,3.0022182E-2,-8.561577E-3],"split_indices":[21,0,0,0,0],"split_type":[0,0,0,0,0],"sum_hessian":[3.5464342E0,2.5322022E0,1.014232E0,1.3966546E0,1.1355475E0],"tree_param":{"num_deleted":"0","num_feature":"28","num_nodes":"5","size_leaf_vector":"1"}},{"base_weights":[-1.4721047E-5,-5.3247508E-2,2.4734678E-2,2.2280883E-2,-4.530126E-2],"categories":[],"categories_nodes":[],"categories_segments":[],"categories_sizes":[],"default_left":[0,0,0,0,0],"id":86,"left_children":[1,3,-1,-1,-1],"loss_changes":[2.431613E-2,5.317548E-2,0E0,0E0,0E0],"parents":[2147483647,0,0,1,1],"right_children":[2,4,-1,-1,-1],"split_conditions":[-9.2974436E-1,-1.0768392E0,2.4734678E-2,2.2280883E-2,-4.530126E-2],"split_indices":[24,24,0,0,0],"split_type":[0,0,0,0,0],"sum_hessian":[3.5391748E0,2.3660858E0,1.173089E0,1.1310138E0,1.235072E0],"tree_param":{"num_deleted":"0","num_feature":"28","num_nodes":"5","size_leaf_vector":"1"}},{"base_weights":[3.0379015E-4,-2.1232674E-2,5.9272297E-2,2.4907531E-2,1.7129371E-3],"categories":[],"categories_nodes":[],"categories_segments":[],"categories_sizes":[],"default_left":[0,0,0,0,0],"id":87,"left_children":[1,-1,3,-1,-1],"loss_changes":[2.3144163E-2,0E0,3.3620456E-3,0E0,0E0],"parents":[2147483647,0,0,2,2],"right_children":[2,-1,4,-1,-1],"split_conditions":[3.7463002E-3,-2.1232674E-2,5.41448E-1,2.4907531E-2,1.7129371E-3],"split_indices":[3,0,1,0,0],"split_type":[0,0,0,0,0],"sum_hessian":[3.5209074E0,1.5057192E0,2.015188E0,1.0150117E0,1.0001764E0],"tree_param":{"num_deleted":"0","num_feature":"28","num_nodes":"5","size_leaf_vector":"1"}},{"base_weights":[1.4009699E-3,5.0269462E-2,-2.5322808E-2,3.2777406E-2,-7.0411945E-3],"categories":[],"categories_nodes":[],"categories_segments":[],"categories_sizes":[],"default_left":[0,0,0,0,0],"id":88,"left_children":[1,3,-1,-1,-1],"loss_changes":[2.3176327E-2,1.7803703E-2,0E0,0E0,0E0],"parents":[2147483647,0,0,1,1],"right_children":[2,4,-1,-1,-1],"split_conditions":[-6.875E-1,8.163265E-2,-2.5322808E-2,3.2777406E-2,-7.0411945E-3],"split_indices":[21,19,0,0,0],"split_type":[0,0,0,0,0],"sum_hessian":[3.514957E0,2.5034409E0,1.0115161E0,1.1232398E0,1.380201E0],"tree_param":{"num_deleted":"0","num_feature":"28","num_nodes":"5","size_leaf_vector":"1"}},{"base_weights":[1.0689904E-3,-4.9440913E-2,2.3484213E-2,-4.3304946E-2,2.3301365E-2],"categories":[],"categories_nodes":[],"categories_segments":[],"categories_sizes":[],"default_left":[0,0,0,0,0],"id":89,"left_children":[1,3,-1,-1,-1],"loss_changes":[2.1447342E-2,5.1475894E-2,0E0,0E0,0E0],"parents":[2147483647,0,0,1,1],"right_children":[2,4,-1,-1,-1],"split_conditions":[-9.2974436E-1,2.259515E-3,2.3484213E-2,-4.3304946E-2,2.3301365E-2],"split_indices":[24,13,0,0,0],"split_type":[0,0,0,0,0],"sum_hessian":[3.5069919E0,2.3375187E0,1.1694732E0,1.2606431E0,1.0768756E0],"tree_param":{"num_deleted":"0","num_feature":"28","num_nodes":"5","size_leaf_vector":"1"}},{"base_weights":[1.4804639E-3,2.164023E-2,-1.81022E-2],"categories":[],"categories_nodes":[],"categories_segments":[],"categories_sizes":[],"default_left":[0,0,0],"id":90,"left_children":[1,-1,-1],"loss_changes":[2.3985723E-2,0E0,0E0],"parents":[2147483647,0,0],"right_children":[2,-1,-1],"split_conditions":[-9.773842E-1,2.164023E-2,-1.81022E-2],"split_indices":[24,0,0],"split_type":[0,0,0],"sum_hessian":[3.494873E0,1.553081E0,1.9417921E0],"tree_param":{"num_deleted":"0","num_feature":"28","num_nodes":"3","size_leaf_vector":"1"}},{"base_weights":[1.8254743E-3,-4.5541946E-2,2.4786118E-2,-5.2785676E-2,2.3575036E-2],"categories":[],"categories_nodes":[],"categories_segments":[],"categories_sizes":[],"default_left":[0,0,0,0,0],"id":91,"left_children":[1,3,-1,-1,-1],"loss_changes":[2.0924231E-2,7.002237E-2,0E0,0E0,0E0],"parents":[2147483647,0,0,1,1],"right_children":[2,4,-1,-1,-1],"split_conditions":[1.6244111E0,2.2855002E-1,2.4786118E-2,-5.2785676E-2,2.3575036E-2],"split_indices":[26,9,0,0,0],"split_type":[0,0,0,0,0],"sum_hessian":[3.4842768E0,2.4715905E0,1.0126863E0,1.0016682E0,1.4699224E0],"tree_param":{"num_deleted":"0","num_feature":"28","num_nodes":"5","size_leaf_vector":"1"}},{"base_weights":[2.1820886E-4,2.4302263E-2,-5.2210774E-2,-3.7215564E-2,1.6340325E-2],"categories":[],"categories_nodes":[],"categories_segments":[],"categories_sizes":[],"default_left":[0,0,0,0,0],"id":92,"left_children":[1,-1,3,-1,-1],"loss_changes":[2.3153823E-2,0E0,3.2182284E-2,0E0,0E0],"parents":[2147483647,0,0,2,2],"right_children":[2,-1,4,-1,-1],"split_conditions":[1E0,2.4302263E-2,-4.9973983E-1,-3.7215564E-2,1.6340325E-2],"split_indices":[6,0,20,0,0],"split_type":[0,0,0,0,0],"sum_hessian":[3.4678204E0,1.1502602E0,2.31756E0,1.2875925E0,1.0299675E0],"tree_param":{"num_deleted":"0","num_feature":"28","num_nodes":"5","size_leaf_vector":"1"}},{"base_weights":[8.851158E-4,2.027676E-2,-1.704156E-2],"categories":[],"categories_nodes":[],"categories_segments":[],"categories_sizes":[],"default_left":[0,0,0],"id":93,"left_children":[1,-1,-1],"loss_changes":[2.0967547E-2,0E0,0E0],"parents":[2147483647,0,0],"right_children":[2,-1,-1],"split_conditions":[-9.773842E-1,2.027676E-2,-1.704156E-2],"split_indices":[24,0,0],"split_type":[0,0,0],"sum_hessian":[3.4509687E0,1.520877E0,1.9300917E0],"tree_param":{"num_deleted":"0","num_feature":"28","num_nodes":"3","size_leaf_vector":"1"}},{"base_weights":[1.347334E-3,-4.9889926E-2,2.3663659E-2,-4.4392593E-2,1.7915403E-2],"categories":[],"categories_nodes":[],"categories_segments":[],"categories_sizes":[],"default_left":[0,0,0,0,0],"id":94,"left_children":[1,3,-1,-1,-1],"loss_changes":[2.157875E-2,4.417217E-2,0E0,0E0,0E0],"parents":[2147483647,0,0,1,1],"right_children":[2,4,-1,-1,-1],"split_conditions":[-9.2974436E-1,5.542537E-3,2.3663659E-2,-4.4392593E-2,1.7915403E-2],"split_indices":[24,16,0,0,0],"split_type":[0,0,0,0,0],"sum_hessian":[3.4414039E0,2.2867258E0,1.1546782E0,1.0220642E0,1.2646614E0],"tree_param":{"num_deleted":"0","num_feature":"28","num_nodes":"5","size_leaf_vector":"1"}},{"base_weights":[2.6449826E-4,4.6535637E-2,-2.3766927E-2,2.7731076E-2,-8.3306E-3],"categories":[],"categories_nodes":[],"categories_segments":[],"categories_sizes":[],"default_left":[0,0,0,0,0],"id":95,"left_children":[1,3,-1,-1,-1],"loss_changes":[1.9983474E-2,1.4267388E-2,0E0,0E0,0E0],"parents":[2147483647,0,0,1,1],"right_children":[2,4,-1,-1,-1],"split_conditions":[-6.875E-1,5.9669495E0,-2.3766927E-2,2.7731076E-2,-8.3306E-3],"split_indices":[21,0,0,0,0],"split_type":[0,0,0,0,0],"sum_hessian":[3.4309027E0,2.4305758E0,1.0003268E0,1.351598E0,1.0789778E0],"tree_param":{"num_deleted":"0","num_feature":"28","num_nodes":"5","size_leaf_vector":"1"}},{"base_weights":[-8.0910535E-4,-4.8891257E-2,2.1869244E-2,1.9445265E-2,-4.2093087E-2],"categories":[],"categories_nodes":[],"categories_segments":[],"categories_sizes":[],"default_left":[0,0,0,0,0],"id":96,"left_children":[1,3,-1,-1,-1],"loss_changes":[1.9244777E-2,4.3152593E-2,0E0,0E0,0E0],"parents":[2147483647,0,0,1,1],"right_children":[2,4,-1,-1,-1],"split_conditions":[-9.2974436E-1,-1.0348774E0,2.1869244E-2,1.9445265E-2,-4.2093087E-2],"split_indices":[24,24,0,0,0],"split_type":[0,0,0,0,0],"sum_hessian":[3.4246204E0,2.2763386E0,1.1482819E0,1.144175E0,1.1321636E0],"tree_param":{"num_deleted":"0","num_feature":"28","num_nodes":"5","size_leaf_vector":"1"}},{"base_weights":[-7.9805416E-4,-2.0795457E-2,1.6717868E-2],"categories":[],"categories_nodes":[],"categories_segments":[],"categories_sizes":[],"default_left":[0,0,0],"id":97,"left_children":[1,-1,-1],"loss_changes":[2.0941649E-2,0E0,0E0],"parents":[2147483647,0,0],"right_children":[2,-1,-1],"split_conditions":[3.7463002E-3,-2.0795457E-2,1.6717868E-2],"split_indices":[3,0,0],"split_type":[0,0,0],"sum_hessian":[3.4096518E0,1.4389623E0,1.9706894E0],"tree_param":{"num_deleted":"0","num_feature":"28","num_nodes":"3","size_leaf_vector":"1"}},{"base_weights":[-1.4929674E-3,2.2186143E-2,-4.969912E-2,-3.535826E-2,1.10664535E-2],"categories":[],"categories_nodes":[],"categories_segments":[],"categories_sizes":[],"default_left":[0,0,0,0,0],"id":98,"left_children":[1,-1,3,-1,-1],"loss_changes":[1.9696165E-2,0E0,2.3739927E-2,0E0,0E0],"parents":[2147483647,0,0,2,2],"right_children":[2,-1,4,-1,-1],"split_conditions":[1E0,2.2186143E-2,5.315006E-1,-3.535826E-2,1.10664535E-2],"split_indices":[6,0,26,0,0],"split_type":[0,0,0,0,0],"sum_hessian":[3.40493E0,1.1191885E0,2.2857416E0,1.0768572E0,1.2088842E0],"tree_param":{"num_deleted":"0","num_feature":"28","num_nodes":"5","size_leaf_vector":"1"}},{"base_weights":[-1.5687293E-3,1.6675724E-2,-2.1182304E-2],"categories":[],"categories_nodes":[],"categories_segments":[],"categories_sizes":[],"default_left":[0,0,0],"id":99,"left_children":[1,-1,-1],"loss_changes":[2.1238888E-2,0E0,0E0],"parents":[2147483647,0,0],"right_children":[2,-1,-1],"split_conditions":[1E0,1.6675724E-2,-2.1182304E-2],"split_indices":[15,0,0],"split_type":[0,0,0],"sum_hessian":[3.3878899E0,1.9600828E0,1.4278071E0],"tree_param":{"num_deleted":"0","num_feature":"28","num_nodes":"3","size_leaf_vector":"1"}}]},"name":"gbtree"},"learner_model_param":{"base_score":"5E-1","boost_from_average":"1","num_class":"0","num_feature":"28","num_target":"1"},"objective":{"name":"binary:logistic","reg_loss_param":{"scale_pos_weight":"1"}}},"version":[3,0,2]}